{"input_length": 784, "learning_rate": 0.2, "layers": [{"N": 16, "W": [[0.9122296521703005, -0.3525580426580853, -2.28006228473349, 1.009443544711804, -0.029913724741456527, -0.38965138991663756, 0.48821915492791, -0.08249305718384488, 1.0021000610016046, -1.2896879761723694, 1.2498537671490797, 0.9296563048346373, 0.8871925505441796, 0.20217352960116539, -0.37509356055123705, -0.37526368439058355, -0.33501727286834954, 0.2323416781344301, 0.9793472922008889, -0.4149656254606779, -0.7923925816410593, -0.5572280341896265, 0.9976972985115116, 1.1087871575540482, 0.072141004981993, 0.760705182427929, -1.0685949965582484, -0.7500293049585927, 0.8774044007510681, -0.4014283153125936, 0.6844420427358996, 0.8740412476057631, 0.29038451152967176, -0.1269846142824592, -0.3206260816041557, -0.021529934696176967, -1.1088363599410322, -0.037678631959033725, -0.35241493154938275, 0.8746914230634875, -0.5832599439017059, -1.1188784973479649, 1.6994789251682074, -0.25114584706499543, -0.34861150160821863, 0.11546193482162621, -0.8241182798546387, -0.9379737003901527, 0.3365285451753406, 0.28891840177387607, -0.16920928139826646, -0.16533913179714196, -2.7235023379996597, 0.337452020012916, -0.7469897631017126, -0.7881721680144692, 0.0005293324494086336, -0.8245232620852967, 1.773853744318014, -0.4266834899816174, 0.6499877382060585, 1.458603358986275, -0.39255480727225267, -0.4408821298055991, -0.449538277058617, -0.7470990572775171, -0.6186684928456471, -0.051736630922299895, 0.3508488570575292, 0.37354528024847633, -0.9163349111733678, -0.9539041570379849, 1.9438246318607784, -1.0568338691578334, 0.10380521960369672, -1.1715455305643212, -0.7324163851306262, -0.9950270000107491, -2.6517768824579497, -0.12164620166684419, -0.4280352235015548, 0.8387516789346918, -0.3936819137773127, 0.20203142498319518, 1.393943417557508, -0.7728196900297158, -1.4998735664442646, -1.3832205479357593, 0.4288390436651565, 0.7381638233933479, -0.20927937988029022, -0.2103841202642833, 0.09695904513025629, 1.1016653510913403, 0.35110271852683267, 0.996054351340946, -0.42783049707980536, -0.3806708271091592, -1.031701216217325, -0.5547256295459271, 0.8376201739212494, 0.059529701128545276, 0.945310166698745, -0.3242065037383367, 0.6125476458951512, -0.5340112291425697, 0.11781301779602987, -0.08905185815541303, -0.30217973076725857, -1.385165961928761, 0.03847272920071266, 0.62057845812721, -0.8382670049830324, -0.0735201465166587, -0.03972199424559321, 0.25293491072971414, -0.7414722992310352, 0.5215324606772718, 0.14356605286958057, 1.0057705004090702, -1.5715353038811322, -1.4176466677564648, -0.12109610946598166, -0.34721963778608894, -0.2757109948825641, -1.2550223116164547, -0.4245361323979012, -0.22613782560972964, -0.5948826022268735, 0.9336609715052415, -0.2687320274357868, 1.9654107276303447, -0.8392052287939701, 0.4327455757003327, -0.8584321330713179, -0.23167244291854153, -0.23200012816136104, 2.8872860389303994, -0.34004450739457986, 0.9711135635235101, 2.83557987624003, 0.44369012618810527, -0.5853094205271788, 0.7042922051228394, -0.50744810054625, 1.1055884212141338, -0.7586413961740258, 0.4002829720218969, 1.1966696078601007, -1.390982550660651, 2.0530776381957576, 0.4210470634525538, -1.4231114931299047, 0.021166245253357936, -0.8667877736951012, -0.651680692743524, -0.16347251215803732, -0.38375829166088665, 0.04416164609310221, 0.8653769656680613, 0.015711198194977107, 2.218452159110228, 0.03517321949562636, 1.2444992161247528, 0.5138868865454276, 0.593138528875486, -0.6064016646917617, -0.021232500676370118, 0.19086434705000138, 0.45840488889182773, 1.8237161323043922, -0.46623888708624317, 1.3501902641388952, -1.7264472236313115, 0.1317201049592148, -0.125660822207845, -0.6966778898014818, 1.5877027200138756, -2.2771330059402968, -1.3233550436719361, 1.2468976481899456, -0.5956130124723168, -0.2861802830591859, -0.6980652248622493, -1.616171596445803, -0.18001505771785956, -1.20036672822891, -0.6717959872107225, 1.8309258185450132, 0.06717010244410372, 0.1489949204803189, 0.39925316065815514, -0.6784496932765492, -1.7496243827405031, -0.11703046492862966, 0.9606037902603952, 0.7335234799729288, 1.002010686436903, -0.1555962675977338, 1.1945772045307204, 1.1907484056195037, 0.46957731136099223, 0.5812957315072004, -1.1942983784268728, -0.5281499650118783, -0.23810246031997506, 0.793701258219481, -1.1771062175852582, -1.025327600306095, 0.21126560673274397, -1.1831095875886422, 0.7526853988381788, -0.6772426144662893, 0.28329993471489057, -1.0041874963393422, 0.9997552505647535, 1.05221893536967, 0.6102611218055736, 1.4973128564798281, -0.19641796044679086, -1.209678892898013, 0.564473653345835, -0.07667186865189697, 1.0003349709323845, 1.0257371481554034, 0.6238061976926143, -0.7578583406222681, -1.0543432610579027, 1.328512326824892, -1.4406443863672185, -0.10538060698469631, 0.6709834715869493, -0.9391025346718049, -1.0775213369512706, 0.259578859584557, 1.0299264223073568, -1.8875934976089261, -0.17765153098971834, -0.9180708745367792, 1.8885385506233214, -0.708467295659306, 0.827360446196434, -1.1549652547401181, -0.7310936674929418, -1.8642150563221045, -2.173436755599452, 1.2132584079613908, -1.0433786865063102, 1.5249646995826738, -1.9594343340314877, 0.3168631060863094, 0.581534808332364, -0.17495182347757934, -0.9128425018931742, -2.2906231023152968, 1.8812651102987397, 1.3419650530721532, 0.240584485044837, -0.8641615375174856, -0.9047311699646656, 1.4258135653396293, 0.7005301967225788, 0.6428635341554017, -0.783220598437996, 0.7849973655206107, -1.646632368978853, -2.0396589485444134, -1.12967434186572, 2.710119412872102, 0.6005360496322504, -3.0005507890795156, -0.5897747213590022, 0.8421445652490271, 0.13223468186073767, -0.27402283933392696, -0.8899133524327011, 0.7493804483684732, 0.3855982742950443, -0.7960582733673295, 1.9484189303075694, 0.11942303084167312, 0.4461419027567409, 0.8920372019004789, 0.8897057009364449, 0.17686100388320483, -0.5240110002058437, 0.019146130068664707, -1.1645098311461437, -0.5549188648466212, -0.9566321160888214, 0.4591465221625233, -2.0554669664675487, -0.5092953818449698, -0.48716961612283205, -0.8107212057401258, -0.3682054513173886, -0.09425180558020006, -0.1270930754311901, -0.5048451319265783, -0.3454703337873914, 0.2855627827212101, -0.41030260999766033, 1.6206366545980315, -0.8222667145025415, 0.6530873757610337, 0.9270475706760966, 0.8044625721033893, 0.2205270528633293, 0.3873889357231647, -0.34071236939797894, 1.6726073643252342, -0.22823999625517227, 0.5865812048530415, -1.1602566678359885, 0.23796473956101702, 0.10349658376639521, 0.00602412302394047, 0.08269774582821174, -1.2652959997888147, 0.29344191196572333, 1.2976517007742927, 1.0698517344912961, -0.8031903241466243, 0.7901078526541647, -0.06969939085921664, 1.588023995509847, -2.398620729894595, -0.032079882330243274, 0.1040237139684546, -0.1700571889815458, 0.1429654803522059, 1.0814942154236151, 1.634127507281564, -0.24773766082021154, -0.9085872464766674, 1.5218282982434108, 0.397491451861156, 1.6783691562935201, -1.0391833941967785, 0.2913083295465183, -1.8939219504909386, 0.25177926262460254, -0.687322296598125, -3.2784083665370916, -0.40406153328733424, -1.145595309291893, -0.42037970654642687, 0.15760043420701378, -2.9406306118152754, 1.7656575396688658, 0.33279518135653946, 1.0804040667995052, -1.4925850222803105, -0.018137865823783593, 2.4333668512751, -1.3205268974592872, -0.5014686038772016, 0.024873736262479573, 0.47512697298844725, 0.7000698789138643, 0.86542976395395, -1.0439390201718628, -0.9854025672454383, -0.9333895072269948, -1.6425958208024745, 0.888466827294967, -0.7579205726560491, 0.39287473240846893, -1.1314778104177055, -0.8621553642458034, 0.9249401916257923, -0.32691933965987896, -0.13714576874369108, 0.8419420174138982, 0.4629966640933021, -0.18594157138990997, -1.4764925885932612, -0.8238414803097436, 0.42468054946070743, 0.6433463212712565, 0.9560943669539891, -1.499954803208822, -1.321395600104428, -2.3868012410758372, 0.2638669938089794, 0.49531263001458053, -0.3794889520038676, 1.0967918219424788, -0.3247163240772628, 0.01581336979971071, -2.796791831645548, 1.4059148742520053, -0.31283280673858616, 1.4840660873873532, 1.099893449430651, -0.18152582342976484, 0.9207519742567031, -3.000965184211712, 0.0973282138824148, 0.170047306192456, -0.41670350081880436, -0.7195806855076257, -0.8824810602448705, -0.12626883782156761, -0.51284922773068, 1.0576144085251773, -1.2190941074425157, 0.16423858954690468, -0.5620894666731847, -0.6104513930951199, -0.1534948682444037, -2.027055602529899, 0.5180571458554805, 0.25828784320538545, 0.36606449116983525, 0.36345876223072016, 0.018115651584602464, 0.5166077684384128, 1.2993653422867557, 0.5729420732707318, -0.21336177057850492, 1.4203926556918767, -0.2915077855788076, -0.9452247817893094, -1.3630865226234465, -1.3573218805689535, 0.20611896519299158, -0.6212250225734649, -0.6533997590032862, -0.5475148011411365, -0.4073524781699212, -0.6153483440540056, 1.3899949018321638, -0.03699955092993367, -0.3726219253951163, -0.8962955253871933, -0.9401600095949615, -0.11028404292299583, -0.7930242737622561, 2.04624903097906, 0.9856949706569152, 0.6242827024715779, 0.23159713101091878, 1.7729750015985528, -0.39104760222273743, -0.20229793360909598, -0.321411033507283, -0.00959966023127599, -0.4264009485319888, 0.9842541011316698, 0.46184658232205056, -1.1439782393903641, 1.4841874848270167, 0.8956565652318162, -2.172002824679428, -0.7476530002785735, 1.112541972912573, 1.0746548181584246, 0.5678326316851711, -0.220033710783006, 0.8612626969004349, -1.5220847569157787, 0.5929614618353845, -0.7315609620212815, -0.3243059151929007, -0.6061447589631512, -0.8764894995204242, -0.09893379843130228, -0.5930371186588625, -1.3191626642158834, -1.0209617316369888, 0.5040461380601006, -0.4407521539103377, -0.23369383428956655, 1.430936140371916, -0.8567527198919763, 0.03155034940688102, 0.4154400744902071, -1.611634812347287, 0.519911887300941, 0.5587232582232817, -1.7394745792001378, -1.100957500092994, 2.268395284553064, -1.434573496821159, -1.8786514458617298, 1.400949499868508, -0.5235622238049485, 1.4052488177648121, 0.01376058753960026, 0.3911766239420857, 1.0003652252781694, 1.2924145210592313, 1.0685360378499549, 0.2294648827362384, -1.5498720878125427, 0.05604789589148603, 0.9242146875955338, -2.185460604962765, 1.969907792700411, 1.4346760141965678, -0.13272898753003637, -0.14870607655369775, 0.2895070302592055, -0.8233278834139068, 0.5307428857668556, 0.2805379103673442, 0.9081566661776564, -0.19289069603467057, 0.134847070553197, -0.06094941943805265, -0.5960055860033163, 0.5650564943333151, 0.20404472218231914, 0.41161987104074343, -0.7883288954461227, -1.1842651414140781, -0.056910823959492644, -0.7382679647929237, -0.6671699704529749, -1.634422533121098, -0.6931062749632233, -0.2327503286821525, -0.7353957561813717, -0.06296085011783319, -0.006390300615136032, -0.6461703120147431, 1.4643769733658718, 0.06148693175505265, 1.0145748894073796, -1.4462015627375764, 0.6777369512246869, 0.13170372319588067, -1.6404577068675048, -0.10527242681904425, 0.4290739840064491, -0.26718558751001953, -0.9284746490310878, 0.28566942903801934, -2.146220228636924, -2.285719912679282, -0.27417066466791495, -0.6644689456956108, -0.08697463132944935, 0.22916165719482323, -1.2714423617666406, -1.1032462461332335, 0.46019088064585056, -0.7455738966351909, -1.7977250467456791, 1.4568840485308099, -0.5546424092570568, -0.4800494469671421, 0.8303959003197493, 1.3920471269699988, 1.0551724897209704, 0.3166228437082859, 0.23417709806423959, 0.7038311828807863, -0.11344624865014251, -0.23710845926252994, 1.3725241350537598, -1.6787330806107135, -0.1523974784954874, -0.20216851530932797, -1.3599990440771228, -0.33847127909101665, -0.19474737692056276, 1.1226049975732508, 1.1921914146912724, 1.4295385328174997, -1.3443550684746706, 0.28854474928526225, 0.6718744308988561, -0.39877308086802465, -2.027053179885504, -0.19581942293229934, -0.7368893540520957, 0.21660127616403574, 1.5301157810877286, -0.4866808054066527, 1.1909080676848094, -0.7409832180356362, 1.1660802076174985, -0.0665977244817938, 1.2670043911446593, -0.762254876026411, 2.2637667562401593, 1.6106133175235577, 1.420179206706799, -0.3242037087440958, 0.10001198551412548, -0.597557474063945, -0.13311793911388944, -0.08163587820552795, -0.3533289413444052, 0.46308089596288127, 0.696941920368823, -0.06866587404666631, 0.23319218880974513, -0.04156037469746657, -0.5073950007336946, 0.7304788855799017, -1.2573397923139895, -0.36714420899826805, 1.204864076315397, -0.4638513757478302, -1.789855164438369, -0.979213294226566, 0.47153327315728116, 0.250424454422894, -0.29042957397467745, 0.9275317234364338, -0.022373474324191116, 0.8744652579871024, 1.0300787618623586, -0.06860114246638054, 0.6909727940085612, -0.2743577146100831, 0.5344524184221978, 0.5420397495554642, -1.1256350120661403, 0.3918863184754018, -0.9420300798989846, 0.5461652427781771, -0.32895210845337786, -0.8780010487384302, -1.9519066486619863, 0.30591152323427157, 0.04463567236808781, 0.15166678259349126, -0.3954872142804132, 0.4592517095589675, 0.3467470307075507, 0.27062732055608785, 0.197457746762369, 0.795981548333543, 1.6125868149383003, -1.0654190345675063, 0.11362187288044877, -0.3816044562312725, 0.8743661686473917, -1.896397295718549, -0.2825109943639352, -0.197775176388119, 0.5597796124804897, -0.64961375632774, 0.9454746352591815, 0.26233429189019103, 0.8074521028400722, 1.0783507516270179, 0.5498411436790228, -2.4137443612310934, 0.9653248837096498, -2.1075063766586837, 0.3562732786222623, 0.24570419458177725, 1.6662405492110832, -0.6494627734199073, -0.3523996832352784, -1.206379347877443, -1.0439279017055303, -0.7924634711216718, -1.1879836920645541, -0.13758266811947076, -0.9806023168762464, 1.1303958338197502, -0.11483926109832984, 0.32162199158506277, 0.4584228817383222, 1.0101686825530176, -0.32464584819032155, -0.25389656621014406, -1.1872446988142904, -0.19678617485221936, -4.138634038841713, -0.2812195400466124, -0.08364938294001674, 1.6316731336515775, -0.390501393132899, -1.0300905058450562, -0.11714586552163762, 1.4323907413498072, -1.1505331698739827, -1.2433905502851845, -0.8699366716018001, 0.783448021544965, -0.6461845037996861, 1.1047375783002387, -0.006966745038333769, -0.6345240006158802, -1.2702324622418895, 1.2912956793044421, 1.5465993985883641, 0.515732171436029, 0.10422686649492088, 1.0499525143177522, -1.3784510214691033, 0.8125759176890641, -2.1584909633798652, 0.7572549359661532, 0.6003968914482676, -0.5022253138816354, -0.8959539939669454, -1.1767263541791066, -0.18027194513987835, 0.29835814879100736, 1.6008410892285865, -0.8144364839109365, -0.10420466295354493, -1.8899755947624328, -0.8548976101727449, 1.1509001100808984, -0.761453921355676, -1.2103374982750772, -0.2867599187606873, 0.0073097814302282745, -0.4940902463752766, 0.37672265391135656, 0.48636640521635, -0.529512079222613, 1.3935756262531074, 0.23478917696383172, -0.3060515645378064, 0.5887015732466484, -2.049673778004677, -2.00258000469274, 1.991490929136091, -0.6127594287908096, 0.5422849268711142, 0.6237060327795427, 0.3909522886568905, -1.981243875883546, -0.7197487416892662, -0.5347655021454139, -0.8947645586754923, -0.2598858820953292, -1.3419352623740686, 0.4208293738552806, 0.5352699755268016, -0.9229824911853766, -0.243202994697866, -0.05666431252552537, 0.7516662216113593, -0.4661074447505172, 0.08937130754106686, 0.07769256703487641, 1.0879397675294418, -0.1942781192001491, -1.8205598739613673, -1.1146008580365536, 1.1930365996219914, 1.063658869505827, -0.2657070145253065, 0.8935483917076693, -0.010737418433533144, 0.31736407312014636, -1.7545004224597058, -1.0107353075762857, 0.7847827568214059, 0.4595703347356807, -0.6993884961544546, 1.2147775893247406, 0.0534779975566359, 0.4141329802890696, 0.19479855209604907, 1.9594371665154688, -0.04853306724303788, -1.3686896197948384, 0.69456019909061, 0.637918260640993, -0.781570512386998, -1.0014156109992571, -1.1087194993427008, 0.8944902250745289, -1.0817964854742264, -1.1311734016487838, 1.1249997062919608, -0.16269278198720913, -0.5694977855653994, -1.6386991818384242, 1.7507975466955532, 0.15800869720655508, 0.6505581492655876], [1.3722942307310502, -0.2574189206771466, 0.3792628651716751, -0.0006734580618434848, -0.14285091622258617, -1.096253068597706, 1.554130461208859, -0.2958473334360258, -2.05735226313749, -0.6977259851378279, -0.08957588487112099, 0.7558907339019614, -0.3439157587860541, -0.6183612331554196, 1.4572518008917719, 0.8508288770197394, 0.8585884479022112, -0.24005665146212582, -0.49217989740464035, 0.36531421216796844, 0.939578293495935, -0.380672037491435, -2.095972829118593, 1.6467704598256627, -0.3736869568758443, 1.5430074991516152, 1.639764126200547, -1.3834388063575205, 0.9230055965374764, -0.7696838320703389, -1.4772233167115025, 2.752468419088093, 1.7131241712885592, -1.0252237124073555, 1.942084620012737, -0.39433481300851947, 1.5600459582186852, -0.34526855198967066, -0.8618243517122609, 1.0517731974174442, 0.2318764996156916, -0.19567593656861637, 0.5431194403293504, -2.1981643581922854, 1.1004974701749162, 0.19209546810660844, -0.23496731130158394, -0.16521754223213792, -1.2906661986905548, 1.8826366135942583, -0.1317873422226246, 0.5159783662009507, -1.3746371293920272, -0.36090000345353845, 0.49508091869956466, 1.7277742813044126, -1.5279501529203814, 0.29244933753136876, 1.9584343701871028, -1.1406201516618273, -1.5595520427773064, 0.9185063231428222, 1.0730215665622211, 0.8774363476592936, 0.9020547664485369, 0.95389602432981, 1.3477945899733843, 0.37162052539300994, 0.6590553608449145, -1.01347438719444, 0.8700473381459246, 0.3149312349407776, -1.8550977948619412, -1.046187859127551, 1.3503360128892627, -1.2026748012493746, -1.3979948344415611, -0.9296001060298956, 0.026587647953620765, -0.35711655768876605, 0.06852468863170112, 0.027361318969998792, 1.108084673044148, 1.099601643397005, 0.5631081779281208, 1.5043717949536979, -1.4504854127397413, 1.4562918014928354, -1.9829486399265532, -0.43740481011815663, 0.889602557898687, -0.8116637934519456, 0.13010706291439156, 1.3126333822158882, -0.7129900137132744, -1.0031705346280502, -0.20763523218701155, 0.710206943264996, -0.13359340393090238, 0.028863622730798743, 0.736181958504875, 0.26336729431886563, -0.9480950566373613, 0.5436779600833384, -1.086146966286742, 1.5887112815190747, -0.1651826577403704, 1.164226139712672, 0.8737906340956815, -1.8361963505179166, -1.535270437108752, -0.45316603752822865, 0.32903266939822207, 2.351355401771571, -0.3265641229337272, 0.5186631952216564, 1.0553264428672207, 1.3457637131014166, -0.4494575015172062, 1.2451138067641858, -0.6186429081160202, 0.5110150079713291, 0.16483802064945774, -1.3879133359120774, -0.009131186954668183, -0.8589060989613924, 1.0012126041087979, 1.178747691729807, 1.4683299681464284, -1.2862887982649602, 1.9533736496558298, 0.10494374569004614, -1.8057909111130919, 0.15170481785042916, 0.39651112025764307, -0.34888578051931685, -2.461471943179746, 0.908482972838377, 0.1902824151878641, 0.6305828948412018, -0.13061925137755728, -0.28526093829469734, -1.692243695059958, 0.46100301570009217, 1.5226028592457785, 1.0055428862692515, -0.8216154601386297, 0.6396932828964477, -0.2953912747565987, 0.7180057044157975, 1.9402383056934982, 1.893489488500415, 0.27671201860070255, -0.44741843733431597, 0.7528310451272169, -0.28696122357056353, -1.1987777169909377, -0.15845454741463563, 2.517319840603246, 2.3414606867045045, 1.3723395505623404, -0.3991188228273989, 1.3889527128387165, 0.044050646296752635, -1.8539222581473218, -0.6851534753483671, -0.8081578821907266, 1.9151686022644943, 1.5260684989947055, -0.14977523893639347, 0.7445468591811307, -0.8420302677960535, 0.2259648226333322, 1.1866193803912446, -0.2365550459803162, -1.0644862511227031, -2.182174224145373, 0.7587383066117163, 0.6102044915623501, -1.6930986803525927, -0.8011294428855524, 0.1927717254478184, 0.001642005716723386, 0.2866871340422259, -0.9740980973550566, 0.05937264523723826, 0.8933136977402956, -0.9352269199250739, -0.5288322984649234, 1.4103184011943766, -0.3379851157889781, 1.58449835436588, 0.509300958524934, 0.8055915037051742, 1.4569654731104942, 2.0482654174934685, -0.9694614361134575, -0.540046035395556, -0.1119799327100286, -0.504352985608151, -1.3599120474128572, -1.0252733661225961, 1.889064212778233, -1.0633306507227094, 0.3354536312837711, 0.20198810359898886, -0.577804141190532, 0.3774449203877788, -0.34155354828084356, -3.0741458748324444, 1.8393971174061274, 0.14666243280046556, -0.4042751881159577, -0.32066911888932564, 1.1958441759407556, -1.857281147187826, -0.3272719110130735, 0.9492812825373264, -0.16828783025393615, -0.1824090556078977, 0.42215565871566674, 0.22635204916477505, 0.5066177018218483, -1.49109180854075, 0.6386783317801799, -1.2835448148801567, 0.6238432676515813, -0.8321004198239306, 0.24993337337676208, -0.5537724631589326, 0.1911900278756178, 0.38224465137814023, 0.4071144470126035, 0.0879568783042377, -0.09881979966822098, 2.2668437687838017, -1.3005931371427455, -1.248686317032066, -0.07447361804315084, -1.5084175533046211, -1.4370328745882834, -0.3255646667804133, 0.8875991327610309, -0.08433190910045835, -2.415750675082975, 1.0967898218097176, -0.6057866072138107, -0.2882395164065591, -0.837507224576374, -0.6415747705849877, 0.38281018138814343, -0.11476343395057567, -0.6399856144763721, -1.0790028521154669, 1.0147951181733739, 1.2996870054570568, 1.0028194779364419, 0.5631092003821957, -0.4010215938825321, -0.8819208684627099, 0.2659489833731384, -1.3002062825978329, 0.2115934267557956, -0.2620800243137351, 1.4172092394893727, -0.3581218010311808, 0.9304291866104861, 0.40052634156728, 1.3173501133637446, -2.2585455091207116, -1.8174038408392321, -0.19045258683428884, -0.013713679550267133, 2.6148929678869886, 0.3118943543599387, -1.6585058563948434, -1.517586934918899, 0.013255954036605072, 0.5523864413209431, 0.9907300650434577, -1.042985856492494, 0.2627770069822906, 1.618326385643505, 0.4465493043308223, 0.6415278718533692, -1.1087185367830585, 0.7426826231609095, 0.5606118034163345, -1.037727799546501, 0.4530081397805001, -0.44853426822458725, -0.11168720063994805, -0.2992826402759561, -2.710932269227216, 0.04354042859770854, -0.14996699197542776, -1.598793466823496, -2.0782916137808987, -0.08498420327049239, 0.4322578660280679, 0.35785727921952926, 0.04194470076334102, -1.4989078032095708, -0.40570109285789097, -0.06447356592802196, -0.8374426166861166, 2.0500760222174064, -0.4808972379010631, -0.3765356381616863, 0.08178519036182168, 0.005125366100447619, 0.7314472664833577, 0.30610644339991466, 0.06520922341287783, 1.5186587552055895, 0.39458268584133654, -0.06631562573989808, 0.2964292313505785, 0.22169746501917112, -0.4000277227351618, 0.9073359071492163, -0.1947531847309382, -0.24982136863570037, -0.6479949537267157, -0.40331095182013604, -1.0607627679020852, -0.11029409893932941, 0.4406044524902901, -1.0524267027370537, 1.0221461192946364, -0.3900849556052794, 0.5267784131486618, 0.33355152942547583, -0.11490435938481611, -0.3121026035312334, 0.6389765788062801, 0.37935935318108505, 1.6689668055583577, -0.12145727115661532, 1.8470002379791974, 0.12646365153588457, -0.05767611441320313, -0.7163925675474995, -0.026087062189002235, -0.14357701174141915, 1.2990973635920717, -1.14547403917701, -1.8288098595193647, -0.5070346012053877, -1.6400593754627204, 1.7304573698086663, 1.7347131999390217, -1.388746660572133, 0.31231010929360353, 0.780110302427136, -1.7248234553473838, -0.29410663720792846, -0.33895011630129407, -0.6452521695170573, -0.20258003113516448, -0.3186893323768905, 0.7289486232282704, -1.6847246815375052, -0.8897881453472894, 0.3522394920395211, -0.9450607690418524, 0.41971964233789555, -0.5811784785429334, 1.3620700875136642, -1.0486250904618337, -0.44173409206628667, 1.0100704673238141, -1.6071553532256113, -0.990040195145369, -0.4896223421709843, 0.8041074096418521, 0.18559218898568935, -0.1993280355715213, -0.07176662897767758, -2.494234377874332, -0.4378271086134648, -1.7777219132331825, 0.6881491180538776, -0.2627086093114277, -0.5423156357482647, 1.383805511050819, 0.43119941462339223, 1.0843007449264366, 0.853247981919028, -0.5969962995553091, 0.5922133925852511, -1.3069762889490837, 0.20328553583660994, 2.4132202384895733, -1.30132756860084, 2.006715313566503, 0.62941035568559, -0.8990227577884234, -0.8727781731974854, -1.4591443370472987, -1.348726699764305, -2.555421921546593, 1.2078299060965585, -0.7991894651587649, 0.2717046727349918, 0.5770106661629112, -0.18734559203163856, 1.2358901674023302, -0.22123485742734747, -0.646651412897114, -1.0816297952110845, 0.7318091016016971, -1.5782112743592704, -0.7785376331110828, -2.4007504409194342, 1.5608610611851013, -0.5508546494972494, 0.8653595538847625, 1.909601844609336, 0.9246404252545893, 1.2086138104482893, -0.7269230036122165, 2.0878418222553434, 0.279661298168586, 0.6319348640890496, -1.7567811486821734, 0.9129833078900146, -1.212235938364814, -0.19599219748815555, -0.4963427848117104, 0.2915657218320189, -0.39364419328219585, -1.523986003020375, -1.5112608681910498, -1.1125651133339256, 0.26194570412997914, 0.4958126971550027, -1.9939087986501671, -0.5126916388149086, -1.5276599454430764, 0.39759472615411107, -0.023675034690457043, 1.3869609360700077, 0.26931099790592444, 1.3327156652371681, -1.6125634977591141, -0.08068895550960038, 0.0019320433399373, 0.23901773974468096, 1.2238322846799057, -0.8118347508970163, 0.5339465159698981, 0.544409656272819, 0.27798838544421467, -0.20518483685661926, -0.5407230792358659, -0.566962920694244, -0.767820202504834, 0.49575965971085645, -0.7619263532415969, 0.056538827386307625, -0.4117226747878554, -0.2737065252782811, 1.2434146079551573, 0.04744500973962671, -0.1858203563542747, 0.30897838215924006, 0.1440802913913439, 0.04323595210943459, 0.6398389480956027, 1.2928210192144693, -1.319481791338763, -1.2984675183430237, 2.0464519235680005, -0.6801291384796934, 0.0679131959080101, 1.9447569832167149, 1.2110397868992437, -1.0513458143225565, 0.15971626375610862, 0.9767594059124685, -0.20106143723063866, -0.8846041035510042, 0.8011140829409524, -2.2033040386319866, 1.318977730116419, 0.1583982750849728, -0.6113882973380662, 0.20240012764019213, 1.7440653731581488, 0.4555896874770606, 0.22393908708607055, 0.5106204362512685, -0.4825128608319388, -1.7800038998321293, -0.36781857208458907, 1.3321025105084385, 0.35757431171604465, -0.9581371048935693, 0.43758285044863304, -1.2255116024888406, 2.7035096640719076, -0.17450040804709405, -0.6749584950359865, 0.6981749825711981, 0.10668518156969915, -1.2086490309112339, 0.2994996440474232, -1.3067925683041526, 0.28852644028073454, -0.7448761832562177, -0.7162320216026034, -2.037338061297798, 0.8091103350228837, -2.050370518096481, -1.04450858854402, 1.926622927155834, 0.33704638933482395, -0.5092067318703878, -0.8898087037972751, -1.3613048436799067, 0.629598147029994, 0.07945829353676101, 0.721398440555671, -0.5223742427697629, -0.3629676990507311, -0.5973133329994579, 0.34153400872725453, 0.7672871200812723, 1.4797578534387141, -0.6932158177369003, 1.0096065951932904, -0.9640314529241237, -1.564927327357443, 0.10372621516513295, -0.23878879772118453, -0.352627782384853, -0.6889253649576675, -1.006066518361145, 0.10573597358026791, 0.0764350816957545, -0.3837075807976579, -0.4508217703851811, -1.0313340470101435, -0.9958870029123011, 0.26852625659862966, 0.25838573128050096, 1.6581756405001253, -1.222350464490736, -0.2343672968216144, -1.3266783916333018, -0.23973412398051228, -0.10335671837471774, -1.472327765893474, -0.39395881277220895, 0.8756955769301393, 0.272904993129449, 0.4512699411944866, -0.09158860217256791, 0.6610944433818311, 0.49064469515495274, -1.0915716899534862, -0.5210318869812326, 1.0875723924242757, -0.2746934537772336, -0.9857366091862969, -0.6099667162191326, -0.719202950336948, -0.16358870155599425, 0.24532481084277222, -1.7403185941500972, -0.21702311774384747, -0.01878545661751804, -1.2987664738563274, -0.39484356500290574, -0.09427244506687497, -0.9602750622791155, -0.03242424925405198, 0.7282314510657634, -0.22901412195932971, 0.6629507636099601, 0.40654414131818173, 0.21969382630254264, -0.23973686752807263, 0.5937016841668944, -0.4594312094811473, 1.10403231480622, 1.0290317253513594, 0.733758567748385, -1.632606240103026, -0.983700751619232, 0.34905713502718205, -3.060067947701234, -0.010754932861004408, -1.590716781791279, -0.8174511916702839, -1.0408140304414848, -0.24033285199215246, 1.5788250100387835, -1.1775159913626259, -0.9313364190119474, 0.05798033911123336, -1.791316121343178, -1.2212920464180046, -0.09891553079298888, -1.220554732143204, 1.4893395712626185, 0.8231735622391746, 1.426427503580248, -0.6880620840388183, 1.0044510602531913, 0.8496658790370378, -0.42205702635598796, -0.1567846768764281, -0.06029253397752274, -0.6161656546932136, -0.04912477369867232, 1.09031427566749, 1.2317714241631246, -0.3771936230958803, 0.8652178469346504, 0.536409808441391, -1.9763167717369314, -0.39256528736563473, -0.18034245887937495, -2.3138786602686667, -0.5265319570703252, 0.9584265748710012, -2.4772365215726366, -0.26712609273198507, -0.004936188680414542, -1.1374234853947378, -1.121112597900777, -1.4813354248527384, 0.8213230439675993, 2.2335395187402014, -1.4141460428155164, -0.42553718438626426, 0.9341735103230239, 1.1528244590457843, 1.3376181458655316, -1.6720807801781676, 0.05125243090354085, -0.19973624211280389, -0.4702858741720683, 1.6023666248784378, 0.38076886195292753, -1.7224498056915416, 0.32869740524831914, -0.5533225404845087, -0.07731241152099383, 0.2977364653874176, 1.8752684759258211, -1.9245210496930691, 0.646296780432949, 0.5626575421660724, -0.10224389834214323, 1.2761339622958687, -1.183473354707561, -0.938646847280933, 2.502953074272639, -1.1668922381698248, 0.5183596200036119, -1.4754594933197298, -0.4882311648590384, -0.9251114539219445, 0.012920474636304776, -2.0211556571279106, -0.35007930985652697, 0.6455773671967608, 0.18392602017840634, 0.24203727126727625, 0.4893804712632097, -0.4628018477391354, -0.22088298414708316, -0.4404027364149812, 1.321616653668898, 0.7098347607204243, -0.8760798234563694, 0.5414655426388276, 0.45983587597380005, 0.5329981926577068, -1.29227007871021, 0.502302999632826, -0.2706496281839489, -2.3575508947198776, -0.9719226325412959, 1.355702115706436, -0.661536913425596, -0.3559073211075619, -0.0607724508868176, 0.20052230001993243, 1.524221706125019, -0.26033496221014274, 0.8927823882386251, 0.6227383699948726, 1.0707264409999941, 0.24102729680583662, 0.11822511147957661, -0.8910248971086416, -0.5276286095465983, -1.9886687721956895, -1.1008000225966563, 0.5336753183702164, -2.0756562391670297, -1.154748745572625, -0.07325391488465481, 0.6600323226075032, -0.6213436701254805, 0.2049357467386759, -0.7132240757191857, 0.7337425834933083, 0.5380305974600084, 0.4198612283402786, 0.4381435446634198, 0.32100235620562734, -0.7086630243156468, 1.1194024089623333, 1.3671182212083333, -0.7362190859625679, 0.27211255730003464, 0.24509558635288697, 0.012652205263756438, 0.1717580284080016, 0.7777438659344346, -0.9142465191888124, -0.9675086787761095, 0.07376254855155279, -0.9037103553378079, -2.0664143257914667, -0.7556688151943695, -0.843002455275169, 2.530445633163814, -0.5279254685010323, 0.4350454107778117, 0.3505235565138311, 1.570848379895991, -0.5668105079871417, 1.4041744468426647, -0.30871164993417954, 0.570753787642094, -0.018191711876244927, 0.027822449757373007, 0.12963253278819614, -1.2703781516773676, -1.0229516016187916, -0.3799078071066226, -0.6955019250594554, 0.33539785275106254, -0.9438284072536902, 1.0313557455231157, -0.11184318924519542, 0.9206288265542545, 1.1185921152025875, 0.18451058121089356, -0.9697072558903094, -0.5102787704425598, -0.6981575732656804, -0.22843436474188686, 0.831519420886623, -1.0055106989457971, -0.6786066510052847, 0.22217532436067153, 1.4234930375405768, -0.6037975637337628, 0.3103004070703513, 0.8789664045127369, -0.7254024895793154, -1.0750980064999802, -0.03698371097797511, -0.7239400068530291, -0.5425936214991551, -1.1516188713484645, 1.1774074769943594, -0.8649812494541397, -1.2517407216472116, 0.4592019004124072, 0.6495145149689912, 0.36238238892942604, 0.9187115031199226, 0.46024064006491167, 1.5757562084795957, -1.4649181883658096, 1.671908992368455], [-1.3967686233370622, -0.5629201406204191, 0.8352574452445775, -0.4004496137937688, -0.23813053131917178, -0.13479167372784032, 1.0497236250570248, 0.7391642767532212, -0.9559470531467755, -0.7838928433047966, -1.1488855469479782, -0.20360303177932698, 0.14992909009969874, 1.2576712369543719, -0.8634730472256957, -0.49587559476196674, -0.35254572196510253, -1.2879069912622154, -0.06566993098559318, 0.8605806813710898, 1.3238464418989182, 1.4042339437466766, 0.6440006555348419, -0.5484208847431359, -1.5242955298553813, -1.2174899678494053, 1.2349988779155638, -1.1300703937089653, 0.5983320717080849, 0.5625566621547671, -0.5669558775791065, -0.9898993600824395, -0.42880095152745296, 0.3715644969676623, -0.34526002077876705, 1.31827288636132, 0.052559299312272385, 0.027239791634527527, 1.960369047137985, 0.11576383933647771, -0.9470116573294082, 1.945745946994534, -1.669420835748022, -1.0405504131188268, 0.0869689366700788, -1.0626598148518915, 0.12684807842724588, 1.0822293854281166, 1.1918225420852318, -1.2070684409126287, -0.5432265091758927, -1.2591670376968398, -0.1933579258676594, -1.115494093549877, 1.0005628629759158, 0.025906815920855687, -0.07962349636531353, 1.4246694177538575, -0.3653210878969257, -0.4151535476610419, 0.013590338306613275, 1.4724863393302705, 0.09242004241799343, 0.024895505791514776, -1.8440028970843212, 0.37370103512127467, -0.35410359998670876, 2.356208820090959, 0.24083471528888115, 1.3323371703231115, -1.7006748360043338, -1.680076886295154, 0.6973808668038707, 1.358991059005401, 0.1309444587000566, -1.4164850353339382, 0.49756119684825023, -1.090042593670553, -1.727774229962808, -0.34489884601817566, 1.3512804015435387, -0.6786893015707254, 0.28962788310457827, 0.012747575886738813, -0.9845663858910783, -0.7149912955659139, 0.3881742074711371, -0.9810154600534373, 0.7854908251985265, 0.27014163308200306, 1.1155893052994157, -2.2348211314186823, 0.9023832230093478, -2.4477266896950973, -0.4022221558197523, 0.7209074523396989, 0.18747951770340382, -1.4543431363866963, -1.3075559690148961, 1.0904228416780932, 0.6351772096195653, -0.4111192324131246, 0.22996103294718265, -2.0885879484136862, -0.41499442650544505, 0.2598412997781487, 0.18696793190055233, 1.7753197473731843, 1.0108734037841671, 0.8992584126192225, -0.6816297136577296, 0.027422182464826386, -0.30694224324820313, -1.9757442936912903, 0.36401283879144386, -0.571218596057859, -0.9069413360097477, -0.982096258594523, -0.30526263968530387, 1.1319658996239745, 0.2021598644047523, -0.23505209164791432, -0.2306884234218481, -0.2826728270111258, -0.34052659206741176, -0.11967978995070529, -1.339911879215642, 0.032078505392111364, -0.04817166408610637, -0.849117089052947, 1.103058462087827, -0.2711625992242685, -0.2246963951747638, 1.1878106995855275, -0.3576668909561535, 0.529099980586332, -0.2056648414618024, -1.6668617970293225, -0.12259500259480202, -0.239445913438681, 0.22851039539713677, -0.19952353286628838, 0.9111394720929525, -0.39968917577630275, 1.8857695217233945, 0.9600039909047768, 1.9338372723029804, -0.9034458888617362, 0.22320383364529603, -1.9830320733611941, 1.043415961900696, -0.7929746986829008, -1.8918202360932304, 0.33841180475607774, 0.5668620243554205, -0.08184211828646455, 0.07468598020730298, 2.81329462946351, -0.5931723253285135, -0.3416761804387315, -2.0108063791197908, -1.6929965641982865, 0.34795978943096617, 0.5150411215677108, 0.4797874893357615, 0.16041131053742536, 1.298756644690384, 0.6052898543180517, -0.4391363360503879, -0.5635230806781671, -0.08835749590965576, -0.481860888209425, 1.3480730421050784, -1.4662422082815305, -0.5669511693239766, 1.1232196561906604, 0.5719770923441696, -0.3563399442822851, -0.5893524793174072, 1.2782511740596534, -1.154733373838237, 1.0562575549197488, -1.1979815180327775, 1.2906884247438415, 1.0264964485671542, -0.6342546594986014, -1.3064311754489901, -0.15078865480261203, -1.355934294840474, 1.3268162189277426, 0.9258277549987189, -0.35914184825815143, 1.2035629477021645, 1.2440706977294742, 0.09792682056270183, 1.5117473888744897, 1.0177391667935292, 1.273223046550514, 0.09069653080705195, -1.3351661229499365, -0.7964801166117739, 1.3174425952890334, 0.5497492102263286, -0.41384168007754174, 1.9213207198665665, -0.3281041823719716, -0.798551261286138, 0.7023923887769787, -0.38380442150338673, -0.5062922154366031, -1.7139194530985185, -0.3899531029575871, 0.8973578877544139, -0.7359577349803287, 0.1729384805929048, 1.412657437859423, 1.3567226693568646, 1.0208446155392406, 0.9519524850485266, -0.1412829288199421, -0.8814820440521075, 0.2734192274836844, -1.4632284351955869, 1.737218176084519, 0.661305177693182, 1.4315148144035514, -1.7615168572377453, 1.4133519838150435, -0.8099666903750221, 0.33542785934163544, 0.48398991717602, 0.6485581749028881, -0.5934635439863726, -0.05477524756896639, 0.05991132154343679, 0.5369654539761276, -1.2161846912609073, -2.3071810585949373, -1.8133859591206913, -0.3678810190196443, -0.013947626446502197, -0.30114850045530417, -0.7128017219278788, 0.7557512366007426, -1.0520741261447117, -0.6142890679434804, 0.3002991449537028, 1.2005272130357774, 0.2160385207361246, 0.4240872914655524, 1.6932355984136085, -0.5909955408521385, -1.9868798546336015, -0.3048307909526028, -0.5465727327411881, 0.10363581386011086, -0.9447668704421817, 0.9358912863665164, -1.2718668841185417, -0.9948812088840139, -0.4013924500932645, 0.15111412161271462, -0.9264888017347166, -1.0506683889859851, 1.3907766778546509, 0.6080493893102661, -0.22072685792109847, 0.48737795598751565, -0.9352276049226725, -1.3485264266048724, -0.9499365068305753, -1.0224192870157842, -0.6529694853623583, 0.4876797491998305, 0.5152672431136013, 1.3265276213870325, -1.7695639794011158, -0.8097225819150833, -1.2259609342238116, 2.0520942919359877, 1.4331795093995432, -0.309693321905605, 0.1933661908722223, -0.04537857301186214, 1.3540470309106887, -0.818354533890477, -0.11596015963950893, -0.6063756047494935, 0.35612109208422754, 0.6626333160124078, -0.4710523181924045, -1.8329020708545642, 1.1698003334169316, 0.6097277746210716, -1.814499287546165, -2.398480305854751, 0.1799169088623213, 0.0812427803547521, -0.29156500391276036, 0.5696852634767564, -0.8607813220603131, -1.1201157564993618, -0.741393433651753, -0.6197107637375445, 0.8348722908054487, -0.09276312118159771, -0.8803105691264754, 1.5703608105869955, -0.9395774219683579, 1.3135538420032677, 1.3030158311456435, 0.6013012845417677, 1.1419806813881468, 0.9214600921620733, -0.6612087513436594, -0.6011908907423352, 0.183119412648268, -0.4280855927137745, -1.6290762744602707, 0.6678890903341548, 0.002245368437388257, -0.6663554407223277, -0.05028337389454265, -0.3127752799217134, 0.5087963572857773, 0.18841989904066955, -0.30014494197939684, -1.679895727249936, -2.177222888528358, -0.3000767281994141, -1.5611523055205727, -3.054416015556905, 0.3205352437063134, -1.077558053482171, 0.836660864304097, -1.8929023761442503, -0.4049242024625878, -0.19094166087850767, 0.2864627723348612, 0.735019438949635, -0.44013756275488347, 0.5196158253790671, 0.194322757635216, 0.6962438981464356, 0.13863382807381688, 0.16394929033693864, -0.5655307335319067, -1.5903906314807537, -1.0189848812164495, -2.5828815402205496, 0.634993218881348, -0.3879345517179489, -1.03275774436549, 1.6473090115798856, -0.9477442168460923, 0.32722615850277464, 0.5279969185053909, -0.5798491496976095, -0.05504569241457716, -1.915274210605949, 0.8736146937428089, -0.5039238024804258, 2.794307619806933, 0.23628483813058976, -0.5964288243382396, -0.3308989370860975, -0.17690900109306626, -0.9446555975440294, -0.16716913144649212, 0.1698696080177196, -0.6850932251571299, -0.7834451598143669, -1.6367444696929627, 0.29189344414012974, -1.4055983524362046, -0.6874431657316343, 0.381704160434164, -0.7723466009170803, 1.833396875193681, -1.090964872824687, -1.6510254901317563, 0.701058439174779, -0.003806347561035781, 0.49361608258842127, -0.30273829808142083, -0.8352342172915251, 0.1182465509908572, -0.6396249917580252, 1.732294366078564, 0.016138831738168075, -1.9585985870778193, -1.060282920456816, -0.3389973269597344, -0.443093500583752, 1.3179949379455123, 0.43809047388105854, -0.3835744052502195, 1.3933320377913587, 0.19285019068584927, 1.1582076481279475, 1.27830716960529, 0.3219948689297046, 0.31404282357145713, -1.2007223975652395, 0.03510987784217704, -1.3125450480678738, -0.4143059954777041, -0.9442222557560174, -2.742141782705588, -1.0447189531982055, 1.666690764130229, 0.9348696388088783, -1.0032657993968634, 0.47676645832620007, 2.23440533316344, 0.3874160908469568, 2.8673070730053793, 1.3096849183628216, 1.3221157822854388, -0.6112171380180513, -1.1635812478746856, 0.5979121763876925, 0.1879613073123783, -0.46999404447148635, -0.8682535540427272, 0.7709773019650786, -0.7095522970853319, 0.12056479190381147, 0.45644802199124235, -1.8626843693179806, 0.004289852335355826, -0.643983963901196, -1.466400103528229, -1.6266100193196515, 1.2492231788079398, -0.24640667478851067, -0.39724082437644237, 1.6996392851941706, -1.2234485643975965, 0.45547723025678233, -1.074124111991007, 0.3288893367331805, 1.2869874004758042, -0.32473049443354074, -0.7232915134231327, 0.0002497991588097635, -1.05309545986624, 0.7694490394036689, -0.07440307296156047, -1.0632118333360692, -0.7646602061217876, 1.9504796296469238, -1.199167611760477, -1.1396976995630852, 0.17475248323722423, -1.3804218681996019, -0.5462973380961795, 1.5567331652574508, 0.018612760515924972, 0.003355589730859998, 0.39785998686645707, 0.09122701516130341, -0.5700594577094941, -0.8693443398202516, 1.0492073822418526, -1.9144486728501047, -0.3964561164354511, -1.968084187673153, 0.6800044178996034, 0.09596635014904013, -0.15997388941397828, -0.9919924415341412, -1.1958667209416698, -0.24118124764109738, 1.2038038206753021, -0.3819590766933108, 0.26562948860838753, 2.371558855024198, 0.02958376536163599, 0.2112138641057952, 0.8977008551929478, 1.5951801887594996, 0.10492460481209927, -0.40229619899741315, 0.30500007625195513, -0.4976648498178291, -0.968878372991753, -0.23306350613622492, 0.4311469455938753, 0.01020631148323999, -0.8824600350452975, -1.120858808225062, 0.023446290991645694, 0.044217758037542666, -0.6810357742888273, -1.7390386743796633, -0.29478913327590994, 0.7842275543733765, 1.2458978156599743, 1.1554311212921717, -0.4031509824033319, -0.14292379663577762, 0.9047121409590675, -1.4521310010129793, -0.14456467533147446, -2.044456093238867, 0.4719926313561973, 0.1485867014346202, -0.5134654820620249, 1.0001853927365227, 0.035010858259537384, 0.058569633626542265, -0.8011383546897702, -0.27527839801129145, -1.3164266131331164, 0.15490600475400762, -0.4513019387954547, -1.0572371224290231, -0.05310626785438551, 0.5856723066616133, -0.7492384834340066, -0.6262414360564597, 0.8763413946630881, 0.6646756813781621, 0.40697629504182753, -1.1958640841662367, -0.4560138631911603, -0.3699222792831355, 1.835853672070136, -0.2952127899475179, -2.095923644667442, -0.7223394223587979, 1.0168135877240105, -1.0593819319426319, -0.6993232469944868, 1.099947064278803, 0.9735578460420654, 1.0401517225529642, 1.30342290171935, -0.40592743418554844, -0.5348241878133282, -1.3261404192321475, 1.3289289440932877, 1.0714527991907847, 0.6498983962620279, 0.6106414498067346, 0.5658892610750503, 1.3065431149572555, -2.571939203268525, 0.023298566567757504, 0.12067348232396373, 0.5882986088389115, -0.24586548210295223, 0.23805808597503356, -1.064995753077294, -0.9831484549566392, -1.3096077059594615, -1.149443655354474, -0.3553718679477645, -0.8184697916665761, -0.43266627749330083, -0.06700036302712173, -1.5876230221475345, 1.251612687557826, -0.5650853656048761, -0.8690415428422241, -0.15125990883716364, 1.1140112515901477, -0.5842856867518821, -1.8191798149544758, 0.4696899517036366, -0.45110360337090305, 1.1399628930856713, -0.47252847618789756, -0.08947184124711584, 0.5089264486838223, -1.8182840784584489, -0.6069173824018447, 0.18744210957759738, -0.4095557545533041, 0.6008880963084596, 0.8105726468091615, -0.25319020191002606, 0.5537969873356274, -0.2488876370333461, 1.2762948868080695, 0.05488013109895075, 1.4704693040651369, -1.8720402537411642, -0.3223126039290384, -1.8688096652744295, 0.3406256987738788, 1.4564618960748141, 0.4191401845003575, -1.8834336255609423, 1.4612743158203423, -1.042041567945328, -0.3228859214272209, -0.6008453697012808, -0.022146046206036624, -1.2303924589237802, -1.5150636086648857, 0.6175982921253425, 1.8678004277629852, -1.7855912151932076, -0.1685610684936629, 0.006741274917725938, 0.18143545406598302, -0.6562946873525722, 0.3318805028244656, 0.3274081608759443, 1.1840358992917448, -0.6797774102925626, 1.1204418106827645, -0.33728501775554315, 0.651503632940383, 0.1302845903759738, -1.1502111854879107, -0.12862031816949251, 0.9890834631207587, -0.0028898521873725563, 0.06473485881974253, -1.2153967295964911, -1.2021378052940201, -0.17846186031837752, -0.23213382141364475, -1.247266246733229, -0.29031268318458553, -2.92274268448252, -0.26307039642137836, -0.3958756805620831, 1.0790235386044726, 0.8009786384084134, -0.5178609567845959, -0.3223721437915881, 0.15672638604398073, 0.6105144857711886, 0.12533557396423264, -0.15449403440417395, 0.1251304469180101, -0.3631031719426306, -0.4562118557363565, -1.2204331583433943, -0.6923231507284929, -0.0009316224382615464, -0.09334094454048868, -3.1481098033362582, 0.6412363611704234, 0.7505949406347863, -0.9175618518692223, -1.5534642095751126, 1.589568144504932, 1.2334994223713378, -2.160483688753668, -1.0408510962726432, -0.10108214489807506, -0.8198400695734206, 1.3886883533010503, 0.43001052181267513, 0.3671695903328681, 1.2298693502868348, 0.9200554887271598, 0.158674135436126, -0.35111935385803766, -0.20250897985237387, 0.3753095194791548, 1.092227663595345, 0.7277830948772084, 1.4607392932230892, -1.3364945228578053, -1.3698485550900255, -1.4946221719091934, 0.60197645990449, -0.15416641375991827, 0.7812475267146483, -0.655429380775556, 0.25902557177682584, -1.7686811294521498, -0.24492698090478018, -1.5320113723429631, 0.30448951398343144, 0.6301548537754607, 0.6713918631041875, 0.27514366252152556, -0.3797229141794754, -0.27012178171117246, -0.5146676099107381, 1.1223810450161673, 1.0903138033605295, 0.6466978348014841, 0.7985996677870272, 0.4317707700383425, -0.6823480288613448, -1.6463017709828363, 1.0549301019059345, 1.2884994001001269, 0.13773826273252449, 0.2841311758837566, 0.4679787269415089, -0.1817942378776662, 0.36136505496826327, 2.6708255536029495, -0.8145211371311689, -0.48846158370726805, 1.2925914285907474, -0.5351943468139156, 1.7230263987397794, 0.2003445509897119, 1.4750261118716286, -0.6018091185884409, 0.44353139721075585, 0.2526497373615983, 0.0907052649735224, 0.03505759263079291, 0.7931510941589472, -0.7120920470510315, 0.632209714095814, 0.9297721686516262, -0.4318358136702676, 0.9588898519144625, 1.8542560797895888, -1.2300520273684352, 0.24178491710749933, 0.2333381494706609, -0.021425199523892154, 0.8812237873276151, 0.39972219428251793, -1.5742305564236616, -0.29765655875309005, -1.6336952992573255, -1.0178295865604479, -0.3917307318800832, 1.1315683265474132, -0.41134132763953957, 1.3267642242951412, -0.8826257132570429, -0.06047447825807689, 0.5163631999914586, 0.2669098712548876, 0.621359612964749, -0.2320597098358801, -2.2726541322444493, -0.8057632062904379, -0.19981197827260422, -1.2422310296766375, 0.7745608677502249, -0.013227538668974116, -0.867213058280543, 0.2505145199496282, 1.277873588569453, 0.22200591160182695, -0.4783907040157752, 1.803592834793952, 0.5636828217568661, 0.11140785080793099, -0.650071393578123, 0.24205658996666063, 0.14006540621807906, 1.8845276195296996, 0.5254324320890231, -0.2572877476106188, 0.6180176854222078, -1.5452005483058524, -0.8681988050288961, 0.7989574937909221, 0.9635817000527845, 0.18720737745380858, -1.1294904283618614, -0.7214777365237983, -0.8734620453100091, -1.769015950647229, -2.477802467984285, -0.11443844035865001, 0.160821783815368, 0.6370283899246849, 1.9556715810435559, -0.20676409501350826, -0.15824864698671587, -0.7133733235019314, 1.352051193186842, 0.6773971641433459, -0.26023444426168135, -0.9794034887685414, 0.5085526847538759], [1.771877781004377, -0.0981850336592621, 0.37906467096583546, 1.3832123106071057, -1.6412845662147741, 0.26086316972449797, -0.6521567611969108, 0.9833121942955365, 0.2737489533511207, 1.5424135376681996, 0.7555361398755199, -0.7058632451949984, 1.1691390999482405, -0.18015479815722898, -0.6240674323551714, 0.023705575228668046, -0.8152943286967211, -0.9454686280105755, 1.7050718989624523, -0.749413024378489, 0.39539059973265644, 0.27511400894084126, -1.266382921320558, -1.0304296212747772, -1.3823233053938744, 0.03647316312101045, -0.8481245719950282, 2.2259886730852765, 0.9570856412204233, 0.6323625206504799, 0.3664403358905936, -1.7447902775161832, 0.43302178212999604, -1.2271306681927816, -0.3761498538362359, -0.6889239011280712, -1.0531591726261378, -0.3594992515302907, 0.2818625471748583, -1.9066082483235833, 0.4578651140073792, -0.4680679782733712, 0.26275723840977067, 0.3181470470831886, -0.3625785972496261, -0.14436327708906577, 0.19808851607588548, 3.1096927979442506, -0.558122474193766, -1.8581431597521285, -0.13726884919148116, -0.4289970203479387, -0.800975808635599, -0.08201472505105477, 1.3744622038526997, -0.01591329092728639, 0.698929466491967, -1.0661866704016876, 1.2848864678812424, 1.446781168749604, 1.4559011766996048, 0.8731046433888278, 0.7832747903230977, 1.534879372948575, 2.069620858502207, 0.748343291639096, 1.0352927947735253, -0.4901550175343001, 1.1303227644526408, -1.1747272353489393, -0.2446111738370061, -1.7383216597285087, -0.11874296402269706, -0.6746256692404228, -0.7182060999109903, -2.9555120503648324, -0.801273286222571, 1.0893584176441042, 0.6250916830094618, -0.07734676313976364, -1.8907994733694384, 1.6080181799176576, 1.310799319366219, -0.4174979636288782, 1.7557457787988076, 0.7452989220707003, -0.4166425109267292, 1.9910525559577716, 1.3330222068653976, -0.10752183039724944, 0.2467931140798778, 0.8178207543934585, 1.1384905913633097, -0.680165618825487, 1.7085701119041454, -1.508306964519318, 0.24969949106871847, -0.25075306169724265, -2.5130902511113917, 1.173150220767959, -2.0125867530939767, 0.403005177672648, -0.38679692286048345, -3.605815283852991, 0.18830119846367818, 1.7443122023247466, 0.5416327907944025, -0.03763535702228016, -1.1752113960907957, -1.789233978203455, 0.07588322556591406, 0.9762696326498199, 1.2166568052304012, 1.4558756361250744, 0.24902820669213038, 0.12222619178991263, -1.269593256683941, -0.6482673857897405, -0.25416335484993596, 1.025568762834668, -0.1566720997514074, 1.0190827053076874, -0.11922454548067561, -1.2306038296736408, -0.6903064839539697, -0.7470615327307071, -1.589580302291963, 0.37696907638283617, -0.5743522230652334, 0.8153073321297207, -0.10720958728324347, 1.5730954534568242, 0.6049646302859072, 0.30261120422450966, 0.8239352672668132, 1.2163092379244553, -1.5848222399046554, 1.5647305820558006, 0.2492976910442905, -0.1341927685164958, -0.9887720565754855, -1.258599387361845, -0.10439508983395204, -1.1078054412739957, -0.8731911815839598, -0.9200299588706877, 0.3225338966095724, -1.1440175399859696, 0.07745709866670811, 0.09156080410396605, -1.2302012842753594, -0.9691033558519451, -0.18748006869200978, 0.8295930283448745, 0.8033751146258494, -0.6685565043076128, 0.08320229783352119, 0.4463970730988843, -0.7284168771295568, 0.4379214600850112, -0.7333232672124285, -1.7602794816984793, 1.8478349806027659, -0.03064419515914048, 1.5450955571519664, -0.6557624716282052, 0.8154641534573935, 0.8118251929984138, 0.4555971003970914, -0.34914540264450855, 0.9090954230190329, -0.603558439820391, -0.22048126210691082, -1.672218520887888, -0.1392764638303744, -1.2221500240567795, 1.694406257308168, -1.387424479520605, -0.5422432982914406, 1.1071040055509114, -0.7703479827537472, 0.5326641217691944, 1.6246341829409319, -1.2816081347714539, -1.1345235608855957, 0.2519317690529924, 1.0586493573407854, -1.1761800815372903, 0.3908827331333246, -0.715795703936529, -1.4526400838962217, -1.1402697440328986, 0.5270417172936886, -0.6203593239086653, -0.19994486133764958, 0.8525156540021995, -2.2990251862284636, 1.1190333160767645, 1.5961341165029856, -0.8304229324383795, 1.4514407661951156, 1.24901754927829, -1.940226239451659, -0.8655391025557441, -1.1161560666265085, 1.715461140891774, -1.868820852892255, -1.3771034664921356, -0.18162669379249535, -0.12037510923439056, 2.5710125906463883, 0.19538610317197883, 1.8243187158030951, -1.904148899105447, -0.17428993195026127, 0.7083088470687516, 1.7660006645269994, -1.62142576641814, -1.0810143051604773, 2.3813834727983436, 0.5532946626600679, -0.9281432637200593, 0.494691385635933, -0.8962807970854416, -0.3964707711891189, -0.2380730262644957, -0.14085076109457684, -1.2273781511121469, 0.7903811129263867, -0.03613001454994321, 0.1312503050476479, 0.5118423604089275, -0.4865103514223428, -0.7142607565447445, -0.04351381304775675, -0.057418892549469074, 1.429718670907769, -1.1147543360604228, -0.9392863042709777, -0.7109744879639956, -0.05545596393727952, -0.3546641351390572, -1.1437086152573825, -0.022435072844114428, 1.2723601265078095, -1.8760562618958199, -0.08516868015150934, 0.47673270929057066, -0.8413148505016365, -0.6917666367341767, -0.17014401089559225, -0.4109462044344127, 0.34540093476718875, -0.11870968035004818, -0.7938038487659392, -1.478740784456212, -0.27767557187716274, 0.23305581312705237, 1.9046112582989159, -0.6677520512367473, -1.019425467111125, 0.11589373816681865, -0.10132525611115367, -0.46393508785828363, -1.503109561480173, -0.02280896922954257, 0.2274308995579364, -2.300322996190027, 0.6605106327644304, 0.7618758133152118, 0.33164888927536157, -0.27490479150919456, 0.6191356795516313, 2.21626508413527, 2.1016981462779443, 1.265572172925516, 0.0743691315578937, 1.3874405217351502, -0.828789694778193, -0.6186132186635335, 0.594455010861773, 1.647289722091221, 1.1537284269301644, -0.2387692720294801, -0.3590759018870009, -0.24396149477151494, 1.946755121904617, 0.41434534404051043, -0.1574898541150925, 0.601820210498409, 0.4465258960356776, -0.19449777992474676, -0.8192466408043354, -0.8227498207918071, -1.9035713709601896, 1.26876259918884, -1.9620192856837186, -1.0410129588167043, 0.08367962281460894, -0.6959833607368424, 0.9020163239300761, 1.533031513008782, -1.0206674121555068, 1.1412184903728186, 0.44235723168896224, 0.4085204620802572, 1.2880032410724696, -1.236667890944074, 0.4940035591274043, -0.35063659164159167, 0.6447248193851506, 1.0688205761988414, 0.39036632578086883, 0.035497202634175884, -0.34377626909079234, 0.2706329938907471, -1.8240398017121766, 0.15201010032007495, 1.440617352548123, 0.16241034734564655, -0.5509970556107959, -1.1123419879872014, 0.2616283005899749, 0.5836723929977385, -1.879068658157155, -0.9240658838983251, -0.6288223353856598, 1.1453844524253625, -1.0040341846267977, -1.871940713801545, 0.056424043830471, -0.8991091897238555, 0.22765954307450412, 0.3133546484382208, -0.2823703405268798, -0.9199613499850952, 0.7981326021747185, -0.6907393469996765, 1.0479972661199117, -0.15023181892029644, -0.46491862631844716, 0.045083555905050976, 0.25102592778233696, -0.8045389524978273, 1.0932108543527583, -0.8922250888503648, -0.6549783377145639, 0.15384199383161049, -0.4302525408605446, 0.6131970048043438, 0.5627363364224595, -1.864681792646974, -0.9170700608458777, -1.2361348759901563, 0.44205153884145043, -0.3244346655210145, -0.6870330325884755, -1.2498259570256824, -0.6191665728035987, -1.6167826395619653, 0.33890427005957263, -1.4579564998381767, -0.05319054511541023, -0.41073729087287514, -1.1021649365795747, 0.4680887287475731, -0.3710863659442617, 1.6291699708711511, 0.17277499724897527, 0.9436937576116246, -1.0520324866642297, -0.5027457410131354, -1.6630301434654766, 1.040702746849732, 0.9060696635309435, -0.40131590723206156, -1.8718519222541106, -0.6369018861032592, -0.9909970710919397, -0.036122834448206624, -0.7472793792638308, -0.6421631333014829, 0.13857128458446732, -0.7271074680162021, -0.893044173198463, -1.1601086431726932, 0.04951602179373072, -0.48852321373519264, 0.17901608080336226, -0.9867898738179843, -1.578656093146927, -0.9147076420149409, 0.6681169395440524, -1.4356527751180865, 0.7334897661923125, 1.0963595731197229, 1.9822779504398473, -1.9140021761613413, -0.6767882536653927, 0.44682989399755224, -1.7036733441844505, -2.371704481191076, 0.7511973495835718, 0.3637031693649956, -2.0445507538266505, -0.86049432042653, 0.8235166482125158, 0.08455412289300537, -1.5059429475692447, 0.5730958700362112, 0.11109885050227286, -0.6455156074538224, 2.9919194561878752, -0.9423882835804727, -1.1004461791418232, 0.10922419316568703, 1.096585035469375, -1.598453956790238, -1.0946617314687457, 0.857363139197661, -0.2844049299987092, 0.20827498009438747, 0.7732567788044465, 0.3717085178158825, 0.7866090538111753, 0.0654284390332135, -2.486863022557703, -0.2753366668708912, -0.9832828654251133, -0.695613133053628, 0.7988192957726956, 1.4123048614339162, -0.9718821451051479, 0.09089507025846846, 0.031146096014373886, -0.08143123298503771, 0.11224407621704172, -0.4526843108592932, -1.153023598180984, 0.6532279606337578, -0.24184501446488715, 0.5053642868609387, -1.0096276953735384, 0.008289380781651416, -0.5841773339364856, 0.6556564841513273, -0.6854412014406372, -1.1274074470357367, 0.7506211837254142, -1.7007465561393749, -0.9670146535123718, 0.49703264995692326, 0.22837323873776846, 1.0204728682995328, -0.04004355266174443, -0.11452751886581317, 0.21545698676411343, 0.06347335266647848, -0.9078604451960156, -1.1544836295327656, 1.6523669884726107, -1.853153558633534, 1.6856357690102322, -2.785641015214433, 1.1884963858759476, 1.1051688209424433, -0.4791341012123729, -1.152682709034796, -0.5523817430585675, -0.2102538801081125, -0.5457148400153772, 0.9452756419914964, 1.1134141230656744, 2.2668126486228304, 1.567051670904943, -1.123778533600739, -0.3104195693613682, -0.24281146514411248, 0.060178244703939815, -0.7834724841200389, 0.9821217192526394, 1.452248243178972, -0.034202155816129204, 0.006780547532776072, -0.4422233209844182, -1.252118095437968, 0.5638109542633111, -1.033620970427462, -0.7744823515382736, -0.27676677276276546, 0.7243729575075318, -0.23912032958248883, -0.6235294958118774, 0.9909927582324571, 0.15447560568355614, -1.3184592203656618, 0.143274029050031, 0.01683602431225489, 0.5147415503975133, -0.07025414156177663, 1.365803908931742, 1.0578019967454901, 0.8654456303797656, -1.1578183105143718, -1.3920914404205784, 1.1206384291528977, -1.5896530020377604, 1.1450799422696167, -0.8699383895807388, -1.8501126433970405, -0.5800888196103532, -0.19417632269521734, -0.7719214211269384, -0.34066290030255486, 1.394115371589567, 0.5058610245395879, 1.0125731237658349, 0.12210133936115516, -0.4976038462695842, -0.4584516276121092, -2.0803322538544697, -0.241081025709105, -0.7465368835899773, 2.2681319351659512, -1.1746265509181557, -1.8697025520257726, 0.07971367081317415, 0.038432081376433364, 0.9640867776835598, 0.3565382618375379, 0.03527034868290015, 0.7157034721351263, 1.920291613560946, -0.589333553078124, 1.5361678235845042, -1.0520707141379277, -2.286464752239202, -0.0007000206044382317, -0.07103982981836758, 0.7054318807936398, 0.0742357162222692, 0.11201893431462023, -0.7059334685853405, 0.9670703672154097, 1.0295450953534533, -1.4304701318350954, -0.5174248125823412, -0.20364418324380856, -0.1150246775661187, 0.2537232611563515, 0.9636112251366414, 0.18655117151339426, -0.6372013568931236, 0.5224272355452613, -1.7553596626532526, -0.2526986423486164, 0.02610684923646609, -0.5948023572821963, -1.9282888129060602, -1.5108642214361017, 0.8770761270529134, -0.17301277466449064, -0.32736872296545255, 0.6022161341541481, -1.6558667861477063, 0.37364429556765677, 0.13473879346458265, 0.1564333579880614, -0.8166874579946334, 2.1250054834331964, -0.5270447043040822, -0.12964560315731108, -0.03436043502968595, -0.052108014670644714, 0.6009312757978805, -0.2595339964025201, 0.2909060928761025, -1.5082216286077004, 0.7841592547074522, 0.05152001133777845, 0.2730444883378127, 1.1860889604836011, -0.21843937588402135, -0.5558491753513869, -0.2265882012868365, 0.13968286515992862, 0.8267760511938502, 0.9285038970939793, -0.8156601806318972, 1.4628645147555444, -0.3939990255575783, 1.161723664552191, -1.3395650114757764, 0.8819728149974474, -1.1172295934449799, -1.3790166253671867, -0.668968792542325, -0.7330733887602957, -0.664871358318947, -0.5552114845663673, -0.5073563838014489, -1.3936529558364255, -1.397907162342326, -1.603356350460581, 0.8127789058789482, 0.984340323740511, 0.8303347988651304, -0.23391070317508744, 0.3415183199850977, -0.4827619059373894, -1.0530756937593235, 0.468157432309181, -0.0231689528926714, -2.1523989131314902, 0.6929095548873841, -0.17215266372769347, -1.6666834234950025, -0.6091783099530214, 0.41071808454511377, 0.5768339578624923, 0.5275604946425214, 0.4872053331327772, -0.31680473276604215, 1.8626000651318013, 0.6972076053946082, -1.981856956497044, 0.15244600389410284, 0.5174245338544491, 0.10635364261366832, 0.06173007045436972, 0.5523917941941591, 0.21891718610771993, -0.6544988380405221, -0.9434788215351507, -0.9196507222192777, 1.1721738803774353, 2.808115593176534, -0.7160271426642061, -0.5636024202579893, 2.2984949108000032, 1.1943479036663307, 0.9491775405785523, -0.4613229364505876, -0.3379064063501459, 1.7188648094568908, -0.5866345816728182, 0.49555494746189027, 0.6324322588152714, 0.963510537254753, 0.11417635935559983, 1.5069469070857195, 1.0851076966944748, -0.42662808069917935, -0.26027020242716226, 0.10098513947655487, -0.6784160829472957, 0.7676248536051553, -1.299184563607811, -0.31185523343072075, -1.6337785501328579, 0.1792480850925377, -0.22813932296616884, -0.8804234785156984, 0.7327299348190317, 0.8397758719164573, 1.3368556140882646, -0.3196640070979209, 1.0484251772740956, -1.0550188382071126, 0.8003097680704293, -1.3155316157702233, -1.3252700243817122, -0.48748184480350776, -0.3357843415323491, 0.2903924828957512, -1.634901214243279, 0.8657748976349348, -0.42940429737656793, -0.3678631319144317, -0.08851635814684573, -0.7462666835325709, -1.5600459263128497, 0.8624891173645008, 0.28702740169312746, 0.7640385410581979, -1.7865640923414967, -0.16049993689895464, -0.36260956656675897, -1.3792133876118906, 0.6260400473102776, -0.6724781128377884, 0.008864475287700537, 0.9636022113748867, 1.129520341824623, -0.8857153034319479, 1.3560846561120368, 2.2561051069852627, 1.3455834804739912, -0.5529840738163395, 0.5553760726625272, -0.031738330381869725, 1.5499179269037255, -2.5104448418226535, -1.054087595837452, -0.029534014660139014, 0.30990853103187166, 0.438270904200138, -0.9001119060791472, -0.6138887501589176, -1.010925620907494, -0.5190439238299532, -0.5930352975756924, 0.3054740036819656, 0.36280996517143976, -1.9842097997613697, 0.3211636586085052, 0.9950816037904685, 1.0939108291693933, 0.33898648975894435, -0.6846526307136107, -0.014095935879963585, 0.4976715458559546, 0.41313875675106865, -0.4501542426451723, -0.6999060759365224, -0.5285947400743493, 0.14954915554985113, 1.2704834199989816, 0.6482468863813277, 0.9121817244681436, 0.2013936831303605, 1.371225032880125, -1.7317901700733822, -1.0843254783128586, -0.2530596122360369, -0.3199648681813809, 0.35653081450476315, 0.5029817401013411, 0.9814784680545078, 0.9524486407296594, -1.2584139886662051, -0.23851972595504303, 1.0103523656141555, -0.11167851812116152, 0.3889103505230901, -0.5179065039810363, 1.112541362213304, 0.7669682322387386, 0.043544486894255545, 0.634251494771436, -0.5501674014873865, -0.5375508711139597, -0.4870356838552333, 0.4837547231172454, -0.5338173222615835, -0.07163560047935091, 1.0859848948144604, 0.6594769028023324, 1.37354433277424, 0.5337262932611656, 0.48161339416115456, -0.46480755403217033, -0.8148997515860853, -0.24019233364010328, -0.845531350326794, 1.2786050497408312, 0.7681834085780491, 0.5013390927239378, 0.21230393263923295, -0.5080167323049145, 0.14004650541419353, 1.1390436444292262, -1.020027674522728, -0.1671372191027785, -0.39594493035941514, 0.5192504616856866, 2.078272948027949, -0.03434061511095432, 2.251506643787217, -0.5920336811086335, -0.5457322201240584, 0.39730366319320803, 0.837138567662495, 0.8888552634383615], [-0.26818990001758325, -0.17243771867609575, 0.9863278052813043, -1.1695437539558287, -1.015737339007473, 0.5654916828680494, -0.6943015742543409, -1.7611397689540245, 0.49200627362528276, 1.2358120588164208, -1.5466397053784997, 1.2692295891977499, -0.9676128470724896, -0.0727038546983542, 0.12060062470495628, 0.4731628475285513, 0.8234529567560055, -0.45552143615103263, 0.6527414038315985, -0.5512314365928939, -0.999281263202268, 0.5983903691824185, 2.1590232453874054, -0.9976119701932504, -0.6760787293602168, -0.6217200558870565, 1.4826986647602216, -0.5669821989629729, 1.7033494492483372, 1.5588783100291188, -0.7770654639368404, -0.14174476393676463, 2.12611229378706, -0.2826443742942028, 0.9988488776247704, -1.7865481364318838, 0.46041715716400844, 0.5393932542278306, 1.8825081054916901, -0.4391587413631769, 0.10850614692566671, -0.5346410003927442, -2.045907857885533, -0.28247577200002455, 0.4681236394490387, -0.44431543358928755, -0.11211365056086389, -1.2031255956648734, -0.06740959050430723, 0.9271932356745518, -0.20724357595018542, 0.7469106605448599, -0.9135099450681781, 1.3739211526587083, -1.5377408842762241, -0.13369111038691026, 0.13434027124811995, 1.8487425135362388, 0.2568827556807319, -1.2842673038991295, 1.2246549477760502, -0.7968662045914293, -1.5866606892104975, -0.44163796445298614, 0.72810411312081, 0.6881104970424923, -0.8822238492703646, -0.16541262954984032, 0.09567075389714534, -1.3221719637982279, -0.4257210456930231, -0.527448892342488, 1.40226883592254, 0.8370475330859725, 0.9036270739037449, 0.22829788013482594, 0.8026965860845942, 0.31547256834041576, -0.42140666335453203, -1.7959302890594826, 0.018708704841818722, 0.8848797936624709, 0.9417492816195399, -0.04627183982834426, 0.11099195121001748, 0.48895874747228196, -1.5975493046181828, -0.1649211436763252, -1.6097232333160565, -0.35440336439623954, -0.09877808805424677, -0.5548564578852707, -1.1979398775663868, -0.09565382280273636, 1.5290744437811876, 0.21400055575511542, -1.8492122864887481, 2.6629353755420535, -0.5285158519700778, 1.271893601883833, 0.4868778686337035, 0.84971756022311, -1.818368408547077, 1.060803335652526, -0.6947526902784551, 0.4771216200018454, -1.2253224018908346, 0.37450284872275064, 1.192306492239941, -0.0712705863174938, 0.442858040025136, 0.2907952210023261, -0.21479458702531645, 0.5496751196821269, 1.387111615110468, -0.999999716519172, 0.04940878109878085, 0.0941099720863739, 1.0758274325767418, 0.7961509646435082, 0.6291594073038954, 0.4344312794462201, 1.2137426085532965, 1.4878767992562751, -1.512901011109919, 2.2452299599004784, 1.2439773151150193, 0.5937132324181532, -0.6952258639441466, 1.5637640573851757, -0.009148073753918963, 1.331445946284435, 0.3169941282250665, 0.027224026709351003, -0.515550766220777, -0.09741386001595585, 0.46019850428461084, 0.5787451761427979, -0.5080914474455166, -0.6056093992799829, -0.7416436477560141, 0.13446955205360453, 0.8564870600922766, 1.2400226284964837, 1.2464856168042453, 0.11875668425101546, -0.3556494081528029, 0.48866145409603123, 1.4653110210684928, -0.0032730212635036825, 0.5571802864886702, 0.4498847578314129, -1.3713123755153906, -0.6477170051383883, 0.34023171127253227, 1.2215282336645834, 0.6939756753492498, 0.33845488261653106, 0.7758522681734141, -0.8244348421118607, -1.4257445480696473, 1.088767588198845, 0.30701029718856226, -0.5089671788777369, -1.3808583606429428, 0.5473192735014316, -1.314390252410285, 1.7188405738179813, -1.2378778886370796, 0.43979375123609177, -1.0909357442859675, 0.12986662377785357, -1.217850872644096, 1.1175115800801732, -0.09530512796402277, 0.19785253585044654, 0.32085428210175354, -0.46738996912539876, 0.8319159110302939, -0.27508243368711244, 0.3634923781843408, -0.7578664325721397, -0.5638465107715438, 0.4883960708112022, -0.4482917968653012, -1.5367089334172155, 1.90815698686656, -1.6253285204650263, -0.4331639878112428, -0.30813518780154925, -1.1038031792633272, -0.3751259385446684, -1.3410015589225115, 0.9318801703335449, 1.127174281916732, -1.4098148810070743, -0.9511924091687379, -0.04085365127922003, -0.8753652403733497, 0.23114320064240854, -1.2395881863700808, -0.4615290655879835, 0.6535322025460197, -0.6272498932851023, 1.1443771465602155, -1.086778060458866, 0.4504656121775447, -1.067861126346213, 0.6528016415714339, -0.5554542679854978, 0.22806369782785546, -0.5509672996429302, -0.12662435500894803, 0.4441920249302624, -0.48192038432495937, 0.23372496385342653, 0.4446803106162156, -0.6111375079296589, 0.8528449384695261, -0.87343935864515, 0.2131905910310436, -1.4869498574869524, 0.4572104694670449, 0.3345046671591101, -1.1997362323920033, -0.926335303021593, 1.602536251744708, -0.086928447638397, -0.8685467031053983, -0.9795232678184154, -0.2723080408232027, -0.09913796216082173, 2.283308545847285, 0.8742900317430078, 0.1108317460023846, 0.13334302143906107, -0.15996958380500553, -1.1175731930177217, -0.5312426386981004, -0.1304007819752377, 0.0007011392299782254, -0.5387760531311901, -0.968917265217876, -0.5641401679990613, -0.6748200822842755, -0.7580734495377236, -1.5726561054125061, -0.29828497460458964, 1.120754822387441, -1.548514941979926, 0.07702513042198748, -2.942547650856771, 0.7798725545579568, -0.10823594974085868, 0.0656368993078548, 0.1190260151322711, 0.1599779648606377, 0.7802340366010041, 0.2144542956118877, -0.9275703841472434, -0.48239050871120304, -1.0901973350006418, -0.2884552450186679, 1.6219260647778806, -1.2291062037239324, 0.5648755037406694, -0.24486796367830893, 0.650866186767184, 0.1882153733392412, -1.007742712956479, 0.06018431080564518, 0.8959529685854393, -0.7776989416686886, -0.9963411040520536, -0.7963093200804118, -2.182953074416541, -0.23386893536420872, 0.013614833412081128, 0.6364097391077171, -1.3478054608458456, 0.6360526052686687, -0.17869254416456587, -0.19299523603812685, -0.5696196758122326, 0.3687357695223819, -1.2026453955884822, -0.7785422966654321, 0.02780733195516589, -1.147770770176777, -1.2067104951126475, -0.40451645394090296, -1.0322183147176431, 0.3017727031519008, 0.19235295651755832, -0.11053706783169262, -0.4292860514426237, 0.2802605936948434, 0.2465591089720881, -0.24980917143789277, -1.3815533191333214, 0.16597257119455727, 2.0405407251909504, -0.16599513722811501, -0.8089878659386183, 0.5699150302541879, 0.7652221134257278, -2.0174916524808575, -0.19770046064673716, -2.4538765779081038, -0.2613706031348904, -0.8021003681738327, 0.20630330100407493, -0.6188322349946687, -0.959090260517307, -0.30332193914836103, -0.3203559855839664, -0.7055764214556414, -0.28467109999890594, -0.8110194311725285, -0.0014122755020051566, -2.113501440527528, -0.40592106600878597, -1.8059290666935937, -1.8103177549417648, 0.1737705927855049, -0.45242825108347146, -0.02432642243692486, 0.4608215734369047, -0.048203899858633215, -1.9165412138696796, 0.5721068446010585, -0.8722544617740613, 0.911209019900534, 0.08587684899892117, 0.3455735674597786, 0.7042548283693488, 0.8667769329490707, -0.5440028734052299, -1.3288645588150383, 1.1502991241317506, -0.835450964232837, 0.9160550961787671, -0.17243814029915983, -1.7811856711199014, 0.5217216145559657, -1.7005151287116533, -2.650519375121685, -2.7836720039124687, -0.912132608435941, -0.930403763664402, -1.9118872788886196, -0.6700405170698261, 1.0684858067092247, -0.8787622474140506, 0.3286372145439785, -0.4208098230773394, -0.9340797513652462, 0.5146731998687063, -0.06523121268892086, -0.44002304136713716, -0.9009488410397076, 1.1176668296620813, 0.45373268813800505, -0.8856510231109272, -0.12933687630630933, -0.21352775957501446, 0.1295185410088469, 0.7035793416118109, -0.25884857438551195, 0.7613192342245314, 0.2160509140572876, -1.892829557013951, -0.39883007662806097, -0.30638891294545156, 1.472127661247812, -0.13930625734980168, 0.24218245998284593, 0.41505528588244484, -1.5353711457994452, -2.125309081311998, 1.1282021937715503, -0.5190158467028366, -0.2798243931396955, -0.32292589006024547, 0.598541406323398, -0.34057944949941205, 1.2369232310831673, -0.13532036673908515, -1.6376697387437549, 1.3223398376187738, 0.7784520839453783, -0.1497712719824793, -1.612191257409777, 0.8862649079474458, -1.6546826076999044, 0.13122793084081777, 0.418819289500205, -0.1850523116974989, -2.068396930996018, 0.009624547863058882, -0.5041374098782466, 0.826266060414897, 0.2658991598391029, -0.9116381650508596, -0.06352908713582918, -0.7869624149640694, -0.5192482733625647, -0.015682775212312896, 0.10145732372691706, 1.6604140992873642, -1.3060306738672955, 1.3336233998939229, 0.4188838931645975, -0.14134951799805145, 1.5037548084243255, -0.7359147811602584, 0.6794242859112017, -1.0681071300296705, 0.9375647403661796, 2.546765064735112, 0.21084860846046835, 0.174788115991631, 1.0128948918647536, -0.5659185030249427, 0.39472696809127855, -0.7232804515913897, -1.6650848706632886, 0.680931901139266, 0.8957927690786841, 0.38897743407695956, 0.41910326501324247, 0.2484010742407032, 0.10152785536500052, 0.39673494801360826, 0.44769689326775725, 0.4229252674254568, -1.1077719944262878, -0.07308027628542683, 0.5769480855171699, -0.7711176984230749, 1.3678472806135091, -0.10019966588539962, 0.31636592901885435, -0.4322175671431593, -0.2894809262450469, 1.0102561686205094, -0.02717246734774145, -0.909330325075109, -0.3183679107814628, 0.8481836295577095, 1.2465325487767973, -0.0038978037594332667, 0.21024502536103334, 0.5718178526023324, 1.6801265936432381, -0.7102892988093541, -0.19075014330995158, 0.3409056986174735, 2.747741561985056, 0.7674224208815064, -0.1343953946645729, 1.2718460261168556, 0.0364680741058289, 0.1129409425173288, 0.615326154710511, 1.0599338659496482, 0.1231794878390774, 1.5623207065242355, -0.4865874070292054, -0.05446871569311574, 0.274837593253521, 0.4203014744366023, 1.7517734074340583, 0.28548627771220975, 0.7039134665534331, -2.2359179810562653, 1.5577207378101752, 1.3253897052890777, -0.20790928081939558, -0.4402881042935127, -0.33458132613689623, 0.2853174584890624, 1.049808415618992, 0.8831734776939806, 0.9443374678746363, 1.234942438860433, 0.3822537767349831, 0.5681461376007257, -1.1658026814609852, 1.922130714628416, 0.32272794007073063, 0.06320562277375832, -0.37824571244444405, 1.8209377405149603, -0.4091478977252903, -0.22272362343368513, -1.4280544995447066, 1.0761039431231958, 1.4766894970697644, 2.6845907250310677, -0.13782954656897314, 1.5684631956665425, 0.7065004126541029, 0.9204568906990352, 1.154099567899879, 0.7188023315295083, 0.07982911677561831, -0.5442407119613796, -0.07940995209372409, 0.7630208762173583, 0.6156004987543604, -1.8900263378475215, 0.8080174678242699, 0.16803285376245858, 0.7524683451575019, 1.6331672929611216, 1.2911475236786414, -0.416882843980375, 1.6086079863755431, 1.4941825031383915, 1.4314000290168245, -0.6878841139485536, 0.08429277441563, 1.1006134133025824, -0.2315627248142987, 0.06820094614029384, -1.1665706067349662, 0.2582058866966124, 1.9225531188938434, -0.9783766953368239, 1.2420853631528719, -0.23837324072531907, 0.8291860806224998, -0.18812162930642354, 0.7352299094519998, -0.7183315376048751, 0.8386589176076269, 0.4896928506465682, -0.38260786065106817, 1.7739040846692058, 1.171927747802851, 0.902530688039341, 0.5023758077447767, 1.1699684187089558, 0.7005792962976899, -0.03638396732549336, -0.21168774820491054, 1.307803350382811, -1.0711798497017784, -0.1362619170358359, 0.37624033961837694, 1.5226384369286803, 1.1733577725435627, 0.017178145264845502, 1.725754825432564, -0.10068191655963239, -0.07087768160853572, -0.4322547744392664, -0.8775129194807408, 0.7881148903481706, -0.587878485831642, 0.7994735722839118, 0.5338470312734078, -1.0249020450460524, 0.6277369071384543, 0.24351186530497027, -1.4242205693132075, 0.5781666293660782, -1.0432388468599383, -0.04649170524362294, 0.5671194888113876, 0.9518782149380092, 2.3758655032524905, 0.44405736507081234, 0.5670357787649821, 1.1470668773392374, 0.16574426940287337, 1.1367990123815235, 1.2289700451472951, -1.0523315209760433, -0.21140462945817073, 2.006640233425203, -0.10907995908882295, 0.8223869648346106, 2.2411220997451053, -0.3964717344919733, -0.5193281411855597, 0.5106409777448799, -0.18884554608329232, 0.022226838412773404, -0.850434432423631, 1.7036623565402456, 0.2983846611218409, -0.3649955594301829, -1.0659601376952137, 1.5165286923334735, -1.0013097922452359, -0.5404531050779019, -0.08176166823298209, 0.6886891478339405, -0.5684983397551204, -0.5829287872806587, 1.4360546687047502, -0.3854725637760816, 0.38212944281538946, 0.9062387778088683, -0.22968454280719772, -0.19763451649669972, 0.6618668123072429, -0.7641658837524539, 1.5557498156910199, 1.7671716336972338, 0.0825057932607184, 1.243973289347284, 0.6126775028776351, 1.0320938645179754, -0.7984550326122499, -0.24190765714355666, -0.07854730021842544, -0.16026405165030222, -0.03326384307586159, 0.46901980567914, -0.1735670554917488, 0.37143832340499233, 0.015322291709884047, 0.7799664660665078, 1.0665933619726322, -0.7377781149455761, 1.1968119141731837, -0.41412360647824786, -1.0746732412828248, -0.14622075089648692, -1.5597582199366147, -0.3500508768667463, -0.9094170692877045, -0.16292919147292848, -0.896010126540227, 0.7224095864921378, 0.11652639965544663, -1.5894163464330853, 2.0045938396738543, -1.3786260181003507, 0.15584657289452258, -1.1247298122421816, 1.0395763267587774, 0.11317069669023315, -1.9193990878414346, 0.7970383066796393, 0.37645989570347027, 0.7698455896921779, -0.12643754578498095, 0.12268769858480352, -0.9582297379551206, -0.38420047928884116, -0.25439931642935804, -1.1607381300219108, -0.8771358496480682, -1.1988784219084472, -0.9339536728939993, -0.4044616538270865, 0.1453857623232339, -0.24668433017827063, -1.5987548404584317, 0.9882468727609728, 0.6679328145136045, -0.4798041626007045, -0.5837898121165146, -2.3688229518025063, -1.0378765287405265, -1.1962624319511679, 1.0750219588583392, 0.43056851630607923, 1.2578808918259525, 0.7899701825717024, 0.2129488937153189, 0.3511261149428326, 2.487216728850689, 0.25492464041502194, 0.004813396172147847, -0.25578597719439383, -1.5313579074942565, 0.4264388550776735, -0.6667977456774977, -1.0648953879498644, -0.0581143111950512, 1.1518023407669429, -1.863505577164239, 1.1089930817858922, 0.40287240876453245, -0.4167630909327786, 0.12149277078130191, -0.519768185711053, 0.04083880561017764, -0.7835957710746748, 0.7051286872713237, -0.5181842030581406, -0.6131409950182465, 0.7639557892361867, -2.3334489382370243, -0.04296346409999388, -0.7853409419298042, -1.0821763475845736, 0.2876492805532084, 0.08250551605974783, 0.8079491316969286, -0.32537860520600403, 1.02871230018331, -0.47882484782641965, 0.5976159054097027, 0.3079781201262424, 0.0098552770759134, -1.161512128158846, 0.06369845135161437, 1.2931777772689743, -1.3506932944446381, 0.3283851727908734, -0.09484983319561757, 0.6138737195856443, -0.5493869254809622, -0.3821350856457894, 0.16509662661644517, -0.029891469928980407, -0.2793393440967382, -1.2562327773211688, 0.14658682740681747, -1.5418228123778919, -0.049120576350329154, -2.3828421320043103, -0.29767021436593644, 0.035767305305030424, 1.5196614963728339, -1.075329237295144, 0.26501683864948095, -0.7363783171024615, 0.9081015991450238, -0.4649719824214493, -0.6896396763785742, -0.029568020867852048, -1.0665598201555386, 0.42916999424534524, -0.15431140328625548, -0.3776727120919254, 0.6491746914871838, -0.2466720418550457, -0.18898234022075333, 0.6788240556323271, -0.6437820706369787, 1.7526233999205498, 0.7693607370616891, -0.6706196419791466, -1.022571662010515, -0.6947527167731414, -0.9155979343161572, -1.9750664352757619, -1.9703132017450773, 1.3004506342859476, 1.1666610933110926, 0.7381558698624676, 1.2410713376645786, -0.884155533952709, 1.6912664000185618, 0.17869146365698418, 0.09895679011155317, -1.9457601262900586, -0.07502459395445919, 0.11046523741090591, -0.3073994454155272, -1.6604686707483043, 0.8876614164354776, 1.5867086723415602, 1.2322774816163573, 0.12179008165983035, 1.1720925338315922, 0.07830867758955441, 0.5167242863900969, 0.24612942235931254, 0.8449333891003543, 0.09414186930633599, 0.29865945364229846, 1.6457860847885648, -0.49616847295751015, -1.5242729816729936, 0.6075745156687445, -0.8967434193633373], [0.35443879975067466, 0.8908703198124397, -0.28848301705500223, 1.4214302118782185, 1.4672352847365124, -0.13112092505965844, -1.310844010469279, -0.6562227155017339, 2.4717206400557346, -0.5269317968791649, -0.7946356670115432, -0.010868283985661866, -0.9880684420820504, 1.2444479214887068, 0.40301765318528765, -0.5045228341978532, -1.9074491551065846, -0.9471370690844455, -0.37790779149765347, 1.687632324022863, 0.6456169591811406, 0.6283635500172575, 0.056323473069853434, -0.22769674839298845, 0.3347136335979671, 0.828748835992415, 1.3670611721769361, -0.5709293556525683, 1.6924798334753774, -0.2208212277668962, -0.37458390346202536, 0.392333491806634, -1.3106282766420114, 2.379593682027425, -1.2361928220271023, -0.9931377615034496, -1.0986952152165177, 1.1734328949469146, -1.6574902101694846, -0.5291287951667073, -1.3491762307059285, 1.2960400300137518, 2.2886727375143074, -0.09480982375523603, 0.30180082503609235, -0.6539959948245075, -0.9885092824082845, -0.461054314575391, 1.6868718275759644, 1.3846872274014015, 1.024766225646853, 2.2697795867206416, 2.0679514762436897, 0.36057583543025995, -1.6035141226772547, 3.385534916611356, 0.47376242727041645, -0.2419442059390621, -0.8876940180846205, 0.06249976061287948, 1.065494919839319, 0.8838659642843049, 0.7869912353139846, -0.12976112663658879, -1.0339285122353485, -0.9435407357434967, 1.3066865640907366, 0.3342474659134832, -0.6761875782840162, 0.810495164743153, 0.46138781300572884, -0.8111652578556784, -0.9220232321488819, -0.07379641541480826, -1.87639734846695, 0.9839997867266399, 1.108893580729262, -0.016964419064217865, -0.8344766475411637, -0.057245548490125565, -1.1771260873334697, -0.1653113957620192, -0.08026191439213876, 2.549682637871403, 0.4092430969308765, -0.30278634146577865, -1.1393802608669796, -1.2839530244473079, 1.6723784178675953, -1.570641413227501, 2.101196337137831, -0.1868026220585489, 0.9289242350857538, -0.3702394657555658, -0.07317749650973725, -2.033414960082612, -0.903467194488975, -0.8973717768903705, -0.3747993173110222, -0.29892262250612794, -0.3400214736648724, -0.20293083831180506, -1.1385538144122163, 0.12334314117459903, -0.005043955885803493, 0.007680939182567903, -0.012828223816360099, 0.912094121017718, 0.03849914418539625, -1.0407124156474075, 0.5842281499700475, -0.007164330437752226, 0.7569227797994146, 0.1314545433907772, -1.6279183319765211, -0.21490106413183305, 0.25811646744648453, -0.036861386752832764, 0.15437873423276585, -0.7371141804028539, -2.1225608033417833, -1.0362623285515216, -0.1361681958796752, -1.700493456836511, 1.031142184095351, -1.1762575091681022, 1.0893798930226646, -0.2925163422351033, 0.9495384480533454, -0.7886558589045134, -1.2883979952449922, -2.598149787991372, 1.0169390364454125, -0.018073842269223993, -0.3920738194701979, 0.43820040876374367, -0.01189653480512138, -2.2131325207533257, -2.0293227357692922, 0.41073805090306137, 2.158943895378525, -1.583033688446067, -0.7511772140786739, -2.1980751959817817, -0.1351641672339039, 1.4704930952835698, -1.249312024983579, 0.09507069593623985, 0.8678714964983306, -0.20297797290574093, -0.43482071140577233, 0.6485860063015114, 0.23902863914704858, 1.9719724005767143, 0.6338460526991114, 0.6891160991418301, -1.1575000774314061, -1.3160599691942958, -2.2600098068605075, 0.23686532858499554, -1.5628241515531234, 1.3421361837282493, 0.48265712614135914, 0.9575283880917633, 1.0603745881176971, -1.1262578760703235, -0.5042766626382149, -0.20731051570846393, -0.1691944062875099, 1.0810514348612927, -0.4752361599736932, 0.3280285294819937, -0.6607711752348708, -0.684057408776195, -0.3678691881260402, -0.9921734710677222, 0.4224283228504178, 0.20511808742317983, -1.1881322572134339, -1.4879884324128017, -1.349165264203557, -1.4770427873838734, 0.8119629106281244, -0.5101051334744727, -1.0843581341487822, -1.2430815626550855, 0.0761323379077353, -0.9973216463655542, -1.9855319031588055, -0.05026085356550012, 0.12686603720423165, 0.7226426704618059, -1.1179309853057415, -1.845269217473132, 0.19704015403662137, -0.8427131849392182, -1.1544268093918493, 1.1390653854563726, -0.22429329620299845, -0.6820803078780084, -1.2471260049650623, -0.00024726936082645324, -0.5189779242022257, 0.920116993467443, -1.6573879844343673, -0.8293815144819097, 0.29842231132761193, 0.9899781239664674, 0.020387166042517106, 0.3818181074650368, 0.1432148494780219, 1.3069040082093821, -1.3726199387554532, 0.28072806209682366, -0.3049824913190609, -0.6052073521423456, 0.025580103882848267, -1.1810474086788063, 0.7210767617307675, 0.06066659597064377, 1.127875695751955, -1.0881716740750964, -0.9788384128225305, 0.46209775430366534, -0.38903998885177943, 0.11876453159904357, -0.4885721517502926, 0.14924104859065834, -0.15244576176522223, -0.392699379697737, -0.5212670311683293, -1.3538081092571432, -0.7967095636746415, -0.16818052635305836, 0.8437857216728788, 1.0577004727276393, 0.05292272370969933, -0.7223510597192825, -0.11940397740905612, -1.0513016570898064, -1.2980624755035406, 0.037445197798761126, -2.544368215587623, -0.8648528829543296, 0.7088063725304269, -0.6942860214444558, -1.5501155966915052, -0.5867808658344191, -0.7251921363354092, -0.7166466604563938, 1.453810574663451, 0.043697666856257165, 0.9773363390127076, -0.9855428323825514, -0.5629016822635748, 1.6659177089402077, -0.49663922935964355, -0.33878571500828586, -1.1137605079301973, 1.5052146712023302, 0.6090687589921442, -0.6709585369333969, -1.3922034851366802, 0.8376261735249724, -0.20259261694688097, 1.9016210836224405, 1.2293691620013272, -0.7880307166735627, 0.22159477611051243, -0.6543271440303358, 0.42784338230772345, -0.7853666316212686, -0.3192873365157215, 0.9535524243492549, 0.6270248113824979, 0.15433897053871715, 0.49132945111336146, 0.6127754814736902, 1.022592773186604, -1.4327983376136437, 0.34970360510036047, -0.9153158322688681, -3.151004283177311, 0.6523060428263681, -1.463887142714108, 0.09288813628211742, 0.7768129280045696, -0.4282545634938524, -2.0437076559665406, -0.7821330648252, -0.7438901227965804, -1.3474033480367906, 2.2417422204272652, -1.017351721085655, 1.2646624713606154, 0.26667402292303305, -1.643135250212524, -2.876107328083701, 1.4499011088452698, 0.38004418658210354, -1.2299937692771632, -1.1698430587259474, 0.4293442448884747, -0.8790655567247365, 0.7441663973053951, -0.05745153526380812, -0.8709384844133778, 0.9746223638027015, -0.708624337551452, -2.000834689274978, 0.8764240186140718, -0.3430503845800867, -0.49385244038105586, 0.4388878079183177, 1.2240050829453495, -0.2662110142381892, -0.19007816459952806, -0.8844325717014192, 1.1414262983133951, -0.7589359798555104, -0.0883952824988196, 0.25856198008239684, -0.16005428253967366, 1.158005158758961, -1.317390422857312, -0.0029194326945590353, -1.5434673985268617, -0.9819953606367019, -1.364743180170657, -0.1385881756247587, 0.3745379367360039, -0.08635663947718217, -0.6737705435678, 0.9655667962149037, 0.5421366815595198, -1.8960203839354688, -0.3326404384815068, 1.3848259951516253, -0.04417508882078705, -2.2695931730221734, -0.360088536014987, 0.6124197376748709, -0.12978211153273506, -0.17524209686061284, -0.33282133755997806, -1.416731993812554, -0.7074606930012836, 0.4087336026994461, -0.9729133718542048, -0.22348729654827335, 0.5674948930804943, -0.15787192184262255, -0.08843284647731345, -0.354953599107257, 0.19220548589134448, 0.4373047884611346, 0.3965140711363204, 0.3775348805740482, 0.25887310646199774, -0.5653412415908151, -1.1272926907277483, 0.7156331416583883, 0.10115488698303579, 1.1479445067467187, -0.8028567656160444, 0.6932412179664434, -0.2856301677087939, -0.8560928181537131, 0.18174585488936681, 1.4776780309661395, 0.3067139022847093, -0.7480123976081177, -1.0038751689291565, -0.3380836866639403, 1.0852946156981271, -1.8222540937779164, 0.08592630220529755, 0.9742717573108177, 1.8811265786442892, 0.3506775610675946, -0.6315555746216411, -0.12698128856436905, -2.2420539706457077, 0.323956668415745, -0.6972395745018001, -0.9017513383997844, 1.8271562103859038, 0.8049884796201022, 1.0306063101449285, 1.6470244867758264, -0.392571730345156, 0.6540662388984658, 0.2974553402199216, -1.45156404681632, -0.3584681953816148, 0.1250106175653416, 0.3092632381006108, -0.32696341199923373, -0.86770175171614, -0.7563767652861106, -0.49176565518258064, -0.9088728299079903, 0.004213496304272583, -0.6327653785101928, -1.5022018121674903, 0.9476926588111221, 0.22379991633624344, 0.02099797020511791, -0.03742555528587844, -2.023379890016526, 0.2066596388803375, -0.2532472829198031, -0.5843664079784429, -0.30187503095047213, 0.7591045469874195, 0.26805226084074585, 0.8863745485557625, -0.8070997480007038, 0.5804689626302821, -0.3925429614492583, -0.498596508441285, -0.8699210712502704, 1.9366796766090906, -1.4315728354508594, -0.815046412095911, 0.6344165506908875, -0.4978303253093653, 0.5883329683927205, 0.2648833465364954, 2.524294677323126, -0.6813191242286207, 0.04353942912213348, -2.1110967612989597, 0.34494530509419474, 1.1053139140207568, -1.7613551865182955, -0.33484932830222125, -1.0820313285765073, -1.582351524911497, -2.2874699941556607, -0.12363588737594605, 0.07384559753329581, 0.030647237609301548, 1.3182860775112375, 0.2364916869525482, -1.2325446828335203, 0.7498974232286348, -0.06683283241855359, 0.11484391813389654, 1.8306832171698266, 2.4211141950714983, -0.6905596614763667, -0.697625433858884, -0.3385831563484863, -0.5836813177691064, -0.9263398591772429, -0.771917796447879, 0.6449634822440639, -0.4532097076849602, -1.489079081283311, 1.2016848260525774, 0.4760856935624199, -0.08604021266668538, -0.6856072291530296, 0.784686382505776, -1.1948573738050228, -1.0980773551091272, -1.0109124480277263, -1.6068937806329744, 0.6713345479064229, -0.20003946275071374, -1.470054130116162, 0.327339950427722, 1.2471606286482422, -0.16731150774194306, -1.1528949301949096, -1.4466840128824257, -0.6055142160756117, -0.6110324942571378, 1.311431193944724, -1.7084576493662205, -2.3831158890196797, 0.984955281151607, -1.352171085720913, 0.5648380814221844, 0.37149481299019455, -1.5045832540639454, -1.138028922672819, -0.4821630444721045, 0.20335343094484687, 0.4686373869611228, 1.5427439071408129, -1.1076459183423144, 0.9092903564337816, -0.36951396937623576, -1.7371290020887247, 0.6827673507232286, -1.2036489681926599, -0.5431204576101282, 0.3127334395877402, -0.8507054562471446, 0.3956267909141987, -0.2045758749692363, 1.302336796774595, -0.1727945285120598, -0.2302093377897103, -1.742459250765713, -0.9548551867118608, -0.9664736364836931, 0.4209063962577498, -0.47415365617875666, 0.12034100389978675, -1.833736481253385, 0.7568469301423463, -0.4369387992450566, -0.3119312118352186, -0.13442717924385303, -0.08039777163122316, 0.6546119503969254, 2.101436136766101, -0.2968688520818636, -0.5961729894258221, 2.3452975982789237, 0.2784494043151121, -0.904683791600349, -0.9435214180760955, 0.9157349572482103, 0.5223345875884771, 0.692768479369024, -0.11999691426972367, 2.2598471659001356, 0.9955648467246393, -2.309618953735378, 0.22677006368174035, 1.34968577645011, -1.8159768903708435, -0.8237065103122757, 0.7063105161113752, -1.1388985756922152, 1.4161685309554521, -0.37831579160405854, -0.996944141511976, -1.806907495672845, -0.7322702499353573, 0.4738641345023441, 1.0772735111957532, 0.05133360779204985, 2.1755591524008167, 0.19889271756295027, -1.321839154868776, -0.5949922842093485, -0.2060289457811082, -0.361127936484421, 0.4709475324077498, 0.31858571176154593, 0.6670441420919624, -0.5569611324834023, -0.9406911591660618, 0.44797222925304186, -0.15371703604300074, -1.2005796592319995, -0.2074843013785371, 0.517348372414758, -0.30530891933001375, 0.5933015135460499, -0.8100670203155794, -0.12553710213091307, 1.669726417975188, 0.7821465607882366, -1.5204859795218588, -0.363845574274603, 0.558926001708288, -0.39897697428669976, 0.5121845822410429, 0.7759066337124492, -0.8157593126265049, 0.5137525736270802, 0.020941808823925358, 0.7234129951855021, 1.5968854773661327, -0.7863594873406736, 0.5453845484772621, -0.07499184711599514, 0.25543217857552314, 0.6259707836396033, -0.7270507600044106, 0.9647298567210586, 0.3512914910948491, 1.1533230569945476, 2.2824887162183107, 0.8194952102319156, 1.8131270723012423, -1.462249480984441, 0.1752278694973256, 0.15149815833023558, -1.0990898438932042, -1.474850154660242, 0.050272405184215295, 0.5591193292495938, -0.4295447703442579, -0.004972549751367693, -0.9753115453296988, 0.058225824036138074, 1.9889915449409916, 1.0866595927541765, 1.7063110839658606, 0.1780735184537057, 0.08001506355546491, 0.0033116140248172546, 0.19094632860455438, -1.1626409505908604, 0.19253659378995525, -0.933994642676267, -1.1516053579110752, -0.042610883633240504, -1.0647850567578927, 1.256969874642715, -0.08788073431648899, 0.8786916245382851, -0.39032074360597235, -0.31285182000122663, -0.019966863652862456, -1.4804151590822512, -0.4906084552411865, -0.8282112365726122, -1.2490205126392877, 1.1801424087449885, 0.03430672974094938, 0.20631182200636164, 0.4021815763670247, 0.5102819575448686, -0.7495222378780029, 0.10739509858359397, 0.033858550341440974, -0.93696938691672, 0.3844325821734321, 0.48307400303899556, 0.5619189692143477, 0.7925157012350619, -0.09294838824367592, -0.11542454600226797, -0.22310065296678128, -0.9574528173788792, -0.9057207814590384, -0.46787849670819887, 0.015169908973143322, -1.1381801536018616, 0.7828287592799404, -0.16378408394684604, 0.21114329589099332, -0.8279780391366596, -1.438999318262641, 0.6897532252334698, 1.1913427640022056, 0.7106008299537996, 0.044517206963100735, 0.494202334787403, -1.226895968045967, -0.4802920260692666, 0.5214790594852203, 1.1106914431608599, 1.770908835736708, -0.6433875875787822, 1.1360441932888379, 1.0544295842476217, -1.1922466899939599, -0.7274013506314633, 0.10965405384292354, -1.2766964177980211, -0.8732732917774788, 0.36972432390490234, -0.4123461595936919, 2.0534095812649813, -0.6897286087280862, -1.799405715356282, 0.5519418639947297, 0.8667729657175687, -0.274164220997585, 0.16578510318544445, 0.025246527527873226, -0.04536264980832001, 1.123059174416979, 0.432316780746459, -1.3379596638448454, -0.5523163333917104, 0.040782979478927034, -0.2063336290363411, -0.4244975709416802, -1.1199871277039717, -0.14647318649162722, 0.49499617629164977, 0.8302941753786309, -0.022358085546977623, -2.267643496981883, -0.6219349074267051, 1.482918070847813, -0.8813692463649272, 0.8104510834296379, 1.0622153140175303, 0.7098419753541587, -1.1169416734702309, -0.070163628834882, 0.4158835024480568, 0.6933783175273215, 2.3366612909513407, -0.5972624466693152, 1.7366193902476776, 1.1818978328022862, 0.37461920830246764, 0.008298701834750104, 0.24077929112202856, 0.17474702555530022, -0.5313980775628282, 0.057168461528045514, -1.2837760090822357, 0.35776394097940506, 0.7665946686157693, 0.06938412329197813, 0.10926062434993003, 0.5235214903008553, -0.9214180921322399, 1.016025245628669, 1.5054564436973747, 0.4516146419050323, -0.103186458228426, 0.5901777513142779, 1.1906758512422864, 1.098734739390037, 0.1471118116720821, -0.18457380446606703, -0.9618239433631666, 1.2966605847443409, -1.0281690677906201, -0.5857999036316537, 0.9389565543980872, 0.4390248140791103, 0.9313726090420366, 1.1810245368966792, -0.611202756620769, -1.7201475888488047, 0.1955589440628674, -0.4220021171764765, -2.1202011774847955, -0.9131247158592886, 1.8540716796482717, 0.48373471808863955, 1.6102458781562694, 0.24028779553024904, -1.1262041559372837, 0.12191294205719871, 0.8069450433505959, -2.4367460788584587, -0.7132796767208953, 0.057641101305963977, -0.45552775322742695, 0.5515865256712178, 0.3372824294891871, -0.32805682977893497, 0.7215081782506676, -0.6366686829629561, 0.8197108469691174, -0.9536930201172908, -1.2793970945037747, -1.0981022494112325, 0.2531039813507224, -1.1937533066006873, 1.446611267639526, 0.3103802916570717, 0.356783699383129, 0.6009938351770995, 1.5977110633038016, -2.0335833773538647, -0.14195353718413276, -0.6353923772026739, -1.5331004379650095, -1.3037313089075426, 0.5546108052958446, -0.5384077882383146, -2.1559122766232424, -0.30333230795661603, -0.5999679424436059, -0.7626261371134514, 0.8043109402048901, -0.42760699788366946], [1.4870649598516554, -0.9941415452298402, -1.696818499263524, 1.6808291617875626, 0.6839366407918016, 2.3863383671817426, 0.2118691056886746, 0.6765233828766984, 0.3228215054001346, -0.7156888886920516, -0.0004853998674311486, 0.158766066929342, 0.10173845227453836, 0.12817572125881052, 1.3987837296823675, -0.3911349382150716, -0.432662915027454, 2.5603840098279624, -0.5616189158759627, -1.1501765390616439, -0.18680257687431445, -0.14188863974851304, 0.05200464654588355, -0.18746967393229313, 1.6140782864031689, 0.051354614483386914, -1.1271557580362477, 0.9712196339986042, 0.5890018785469878, 0.27813514679270634, 0.22423055122196145, -0.2049093017918621, -0.6041628525853007, 0.38185769339730036, -1.3347010849721466, 1.1626105764188714, -1.171674607098564, -1.5994867455822241, 0.7482386374095154, 1.5583840867614882, -0.6822169781292482, -0.4390776757847668, 0.9309721472130784, 0.36486064152921255, -0.6320288909108078, 1.1407598060281268, -0.7413299326775075, -0.8085690420327749, 0.6510201903325632, -1.3876136987587986, 1.4768500494490753, -0.63098995774867, -0.1537579413306844, 0.4367159502304444, 1.2775915602630206, -1.4260712550176045, 1.0955616081618034, 0.22158464011219065, 1.343786367957363, 1.3206122796695727, 0.25830413246107264, 0.8631536294885501, 0.07575336562112303, 0.44581491942257206, -0.284851587549322, 0.8192602059339208, -1.4938800102422987, -0.37772711776227363, 0.6105761296093452, -0.049719175297351016, 0.2189036539359982, 1.06154886819565, -0.021874689638737937, -0.513179832750948, -0.30691501225918466, -0.3466901512431241, 0.19677143080018053, 0.6649658192469022, -0.7151228093256407, 0.4765238187000834, 0.45503513810549595, -0.7262254669654049, 0.6333106106709254, -0.12209939034797386, 1.2344668213950396, -2.3960292473640004, 1.147694375596952, -1.096507175162274, -0.0680792581112127, -0.8638111178527225, -0.4244085568812841, -0.25611089429183, 1.5828451753529242, 0.5337296664019419, -0.24889782632224383, 1.6966866712222297, 0.2829919141997641, -1.3669004952023596, 1.6165859836280345, -0.01491797133235108, -1.0303506036234662, 1.2911776107975543, -0.6129050611668253, -1.340637484477398, -0.988805477678793, -0.06557576826949946, -1.9325390313498247, -0.12313899973215373, -2.4449887957171557, -0.4358301220221353, 0.4790744350733695, -0.2919360875848025, 1.7168028603553738, 0.9448241899627523, -0.04981980987888212, 1.1026135397852022, 1.2538284079075581, 1.2202010110210995, -1.2229732098474855, -0.6029170970196633, 0.13775802143541033, 1.3796677618482351, 0.7046253839479304, 1.5564236388315087, 0.8715258379880673, 0.7517184361635308, 0.9876817309242438, 0.9215100340621555, 1.519149264722806, -0.49173188593540706, -0.08833261503847294, 0.9406494431437153, 